/*
 * Copyright (c) 2025 EdgeImpulse Inc.
 *
 * Generated by Edge Impulse and licensed under the applicable Edge Impulse
 * Terms of Service. Community and Professional Terms of Service
 * (https://edgeimpulse.com/legal/terms-of-service) or Enterprise Terms of
 * Service (https://edgeimpulse.com/legal/enterprise-terms-of-service),
 * according to your product plan subscription (the “License”).
 *
 * This software, documentation and other associated files (collectively referred
 * to as the “Software”) is a single SDK variation generated by the Edge Impulse
 * platform and requires an active paid Edge Impulse subscription to use this
 * Software for any purpose.
 *
 * You may NOT use this Software unless you have an active Edge Impulse subscription
 * that meets the eligibility requirements for the applicable License, subject to
 * your full and continued compliance with the terms and conditions of the License,
 * including without limitation any usage restrictions under the applicable License.
 *
 * If you do not have an active Edge Impulse product plan subscription, or if use
 * of this Software exceeds the usage limitations of your Edge Impulse product plan
 * subscription, you are not permitted to use this Software and must immediately
 * delete and erase all copies of this Software within your control or possession.
 * Edge Impulse reserves all rights and remedies available to enforce its rights.
 *
 * Unless required by applicable law or agreed to in writing, the Software is
 * distributed on an "AS IS" BASIS, WITHOUT WARRANTIES OR CONDITIONS OF ANY KIND,
 * either express or implied. See the License for the specific language governing
 * permissions, disclaimers and limitations under the License.
 */
// Generated on: 16.05.2025 19:44:44

#include <stdio.h>
#include <stdlib.h>
#include "edge-impulse-sdk/tensorflow/lite/c/builtin_op_data.h"
#include "edge-impulse-sdk/tensorflow/lite/c/common.h"
#include "edge-impulse-sdk/tensorflow/lite/micro/micro_mutable_op_resolver.h"
#include "edge-impulse-sdk/porting/ei_classifier_porting.h"

#if EI_CLASSIFIER_PRINT_STATE
#if defined(__cplusplus) && EI_C_LINKAGE == 1
extern "C" {
    extern void ei_printf(const char *format, ...);
}
#else
extern void ei_printf(const char *format, ...);
#endif
#endif

#define STRINGIZE(x) #x
#define STRINGIZE_VALUE_OF(x) STRINGIZE(x)

#if defined (__GNUC__)  /* GNU compiler */
#define ALIGN(X) __attribute__((aligned(X)))
#define DEFINE_SECTION(x) __attribute__((section(x)))
#elif defined (_MSC_VER)
#define ALIGN(X) __declspec(align(X))
#elif defined (__TASKING__) /* TASKING Compiler */
#define ALIGN(X) __align(X)
#define DEFINE_SECTION(x) __attribute__((section(x)))
#elif defined (__ARMCC_VERSION) /* Arm Compiler */
#define ALIGN(X) __ALIGNED(x)
#define DEFINE_SECTION(x) __attribute__((section(x)))
#elif defined (__ICCARM__) /* IAR Compiler */
#define ALIGN(x) __attribute__((aligned(x)))
#define DEFINE_SECTION(x) __attribute__((section(x)))
#elif defined (__clang__) /* LLVM/Clang Compiler */
#define ALIGN(X) __ALIGNED(x)
#define DEFINE_SECTION(x) __attribute__((section(x)))
#endif

#if defined(EI_MODEL_SECTION) && (defined(__GNUC__) || defined(__clang__))
#define MODEL_SECTION(X) __attribute__((section(STRINGIZE_VALUE_OF(X))))
#else
#define MODEL_SECTION(X)
#endif

#ifndef EI_MAX_SCRATCH_BUFFER_COUNT
#ifndef CONFIG_IDF_TARGET_ESP32S3
#define EI_MAX_SCRATCH_BUFFER_COUNT 4
#else
#define EI_MAX_SCRATCH_BUFFER_COUNT 4
#endif // CONFIG_IDF_TARGET_ESP32S3
#endif // EI_MAX_SCRATCH_BUFFER_COUNT

#ifndef EI_MAX_OVERFLOW_BUFFER_COUNT
#define EI_MAX_OVERFLOW_BUFFER_COUNT 10
#endif // EI_MAX_OVERFLOW_BUFFER_COUNT

using namespace tflite;
using namespace tflite::ops;
using namespace tflite::ops::micro;

namespace {

#if defined(EI_CLASSIFIER_ALLOCATION_STATIC_HIMAX) || defined(EI_CLASSIFIER_ALLOCATION_STATIC_HIMAX_GNU)
constexpr int kTensorArenaSize = 2048;
#else
constexpr int kTensorArenaSize = 1024;
#endif

#if defined(EI_CLASSIFIER_ALLOCATION_STATIC)
#if defined (EI_TENSOR_ARENA_LOCATION)
uint8_t tensor_arena[kTensorArenaSize] ALIGN(16) DEFINE_SECTION(STRINGIZE_VALUE_OF(EI_TENSOR_ARENA_LOCATION));
#else
uint8_t tensor_arena[kTensorArenaSize] ALIGN(16);
#endif
#elif defined(EI_CLASSIFIER_ALLOCATION_STATIC_HIMAX)
#pragma Bss(".tensor_arena")
uint8_t tensor_arena[kTensorArenaSize] ALIGN(16);
#pragma Bss()
#elif defined(EI_CLASSIFIER_ALLOCATION_STATIC_HIMAX_GNU)
uint8_t tensor_arena[kTensorArenaSize] ALIGN(16) __attribute__((section(".tensor_arena")));
#else
#define EI_CLASSIFIER_ALLOCATION_HEAP 1
uint8_t* tensor_arena = NULL;
#endif

static uint8_t* tensor_boundary;
static uint8_t* current_location;

template <int SZ, class T> struct TfArray {
  int sz; T elem[SZ];
};

enum used_operators_e {
  OP_FULLY_CONNECTED, OP_SOFTMAX,  OP_LAST
};

struct TensorInfo_t { // subset of TfLiteTensor used for initialization from constant memory
  TfLiteAllocationType allocation_type;
  void* data;
  TfLiteIntArray* dims;
  size_t bytes;
};

typedef struct {
  TfLiteTensor tensor;
  int16_t index;
} TfLiteTensorWithIndex;

typedef struct {
  TfLiteEvalTensor tensor;
  int16_t index;
} TfLiteEvalTensorWithIndex;

TfLiteContext ctx{};
static const int MAX_TFL_TENSOR_COUNT = 4;
static TfLiteTensorWithIndex tflTensors[MAX_TFL_TENSOR_COUNT];
static const int MAX_TFL_EVAL_COUNT = 4;
static TfLiteEvalTensorWithIndex tflEvalTensors[MAX_TFL_EVAL_COUNT];
TfLiteRegistration registrations[OP_LAST];

namespace g0 {
const TfArray<2, int> tensor_dimension0 = { 2, { 1,156 } };
const MODEL_SECTION(EI_MODEL_SECTION) ALIGN(16) float tensor_data1[10] = { -0.012793557718396187, -0.034554306417703629, 0.024796048179268837, 0.07491997629404068, 0.072922736406326294, -0.031337853521108627, -0.046371918171644211, -0.057122346013784409, -0.03828589990735054, -0.00041254158713854849, };
const TfArray<1, int> tensor_dimension1 = { 1, { 10 } };
const MODEL_SECTION(EI_MODEL_SECTION) ALIGN(16) float tensor_data2[20] = { -0.016636788845062256, 0, 0.0072521548718214035, -0.0027638459578156471, 0.0026920977979898453, 0.043824419379234314, -0.029107017442584038, 0.058106042444705963, 0, 0.06389232724905014, 0.070689968764781952, -0.031080858781933784, -0.013256782665848732, 0.06227918341755867, 0.06566021591424942, -0.044074807316064835, -0.012987077236175537, -0.017847970128059387, 0.077099435031414032, -0.0025541163049638271, };
const TfArray<1, int> tensor_dimension2 = { 1, { 20 } };
const MODEL_SECTION(EI_MODEL_SECTION) ALIGN(16) float tensor_data3[5] = { -0.19736139476299286, -0.084472730755805969, 0.029540561139583588, 0.035333767533302307, 0.20566758513450623, };
const TfArray<1, int> tensor_dimension3 = { 1, { 5 } };
const MODEL_SECTION(EI_MODEL_SECTION) ALIGN(16) float tensor_data4[20*156] = { 
  -0.016451681032776833, -0.018063008785247803, -0.059089701622724533, 0.13463437557220459, 0.036932721734046936, 0.10295898467302322, 0.067468143999576569, -0.10113219916820526, 0.075941264629364014, -0.12973135709762573, 0.0099708074703812599, 0.080842442810535431, -0.14518336951732635, -0.13082081079483032, -0.022203220054507256, 0.15206409990787506, 0.029345184564590454, 0.11700824648141861, -0.070425905287265778, -0.069619268178939819, 0.1744341105222702, -0.02928042970597744, 0.16831448674201965, 0.049076709896326065, -0.14991427958011627, 0.13246621191501617, -0.093696758151054382, -0.0964035764336586, -0.12926825881004333, -0.17964892089366913, 0.027463994920253754, 0.074042253196239471, 0.12748010456562042, -0.13204644620418549, -0.15303906798362732, 0.096438027918338776, -0.095008693635463715, 0.14909464120864868, 0.0010528065031394362, -0.12081456184387207, 0.073391623795032501, -0.03194059431552887, -0.15266914665699005, -0.071288876235485077, -0.16786123812198639, 0.15043462812900543, -0.058129642158746719, 0.16878397762775421, -0.10751881450414658, -0.11777128279209137, -0.019738433882594109, -0.15646933019161224, 0.05606517568230629, -0.040064532309770584, -0.16566768288612366, 0.099345341324806213, 0.15552727878093719, 0.11853340268135071, 0.16414923965930939, 0.090807735919952393, 0.057614289224147797, -0.085821196436882019, 0.012876688502728939, -0.13814209401607513, -0.032557263970375061, -0.13366951048374176, -0.0065855942666530609, 0.052779130637645721, 0.13684014976024628, -0.039704103022813797, 0.032482471317052841, -0.15528051555156708, -0.10778823494911194, -0.036767404526472092, -0.027085974812507629, -0.084593787789344788, 0.13895806670188904, 0.099771589040756226, -0.038396801799535751, 0.16029612720012665, 0.027332650497555733, -0.011462036520242691, -0.020267173647880554, 0.072426140308380127, -0.019523598253726959, 0.038220763206481934, -0.16865728795528412, -0.0055300104431807995, -0.12258379906415939, -0.1544634997844696, 0.07807353138923645, -0.050592519342899323, -0.073539972305297852, 0.13210272789001465, -0.025118032470345497, -0.16500777006149292, 0.1918565034866333, 0.11471762508153915, -0.11866389960050583, -0.05225120484828949, 0.0040608239360153675, -0.16542342305183411, 0.052808981388807297, 0.10892307758331299, -0.052119005471467972, -0.087639413774013519, -0.087227240204811096, -0.0031819264404475689, -0.1019781306385994, -0.06767389178276062, 0.16112852096557617, 0.069990485906600952, 0.023940043523907661, 0.13457134366035461, -0.073809772729873657, 0.18468298017978668, -0.063532121479511261, 0.058097321540117264, -0.19218428432941437, 0.03832288458943367, 0.0708761066198349, 0.0028194272890686989, 0.033998645842075348, 0.16538457572460175, -0.18072444200515747, -0.028737897053360939, 0.11928834021091461, 0.020398708060383797, 0.15694361925125122, -0.010505739599466324, -0.16937436163425446, -0.11155477166175842, 0.13873191177845001, 0.041155282407999039, 0.1535419374704361, -0.11083550751209259, -0.0046901940368115902, 0.16113360226154327, -0.05976761132478714, -0.0059359697625041008, 0.080255232751369476, -0.002303651999682188, -0.11526782810688019, -0.11711820214986801, -0.085731528699398041, -0.054713200777769089, -0.05311613529920578, 0.085482105612754822, -0.1122623085975647, -0.094792261719703674, -0.083695180714130402, 0.10358624160289764, -0.044871829450130463, 0.11160867661237717, 0.068095311522483826, -0.050820160657167435, 
  -0.17875586450099945, -0.012265816330909729, 0.14855219423770905, 0.022810772061347961, -0.053474053740501404, 0.030263215303421021, 0.057048678398132324, 0.054547011852264404, 0.079799100756645203, 0.16750259697437286, -0.11668530851602554, 0.075869366526603699, 0.024313345551490784, 0.033434480428695679, 0.11140047013759613, -0.097647488117218018, 0.14150343835353851, 0.089560434222221375, 0.18405015766620636, -0.10879041999578476, -0.030481725931167603, -0.017984271049499512, 0.14965690672397614, -0.034518226981163025, 0.092503800988197327, 0.088117912411689758, -0.032554149627685547, 0.13154013454914093, -0.043935760855674744, -0.13365040719509125, -0.028537765145301819, 0.16968546807765961, 0.15693087875843048, 0.17595423758029938, 0.12410415709018707, -0.05729268491268158, -0.1448201984167099, -0.016751900315284729, 0.047633826732635498, -0.082468226552009583, -0.075729325413703918, -0.099880225956439972, 0.17712216079235077, 0.12762720882892609, 0.10465170443058014, -0.047737717628479004, 0.13464827835559845, -0.12655793130397797, 0.014695033431053162, 0.00046947598457336426, -0.16614504158496857, -0.020943626761436462, 0.0067824870347976685, -0.068205438554286957, -0.023975297808647156, -0.18407024443149567, -0.17263272404670715, 0.14455039799213409, 0.15163789689540863, -0.14559747278690338, -0.03243023157119751, 0.12480498850345612, -0.073526822030544281, -0.031175941228866577, -0.044822663068771362, 0.0018469393253326416, 0.1367979496717453, -0.18109442293643951, 0.099931702017784119, -0.048660799860954285, 0.16429753601551056, -0.10334185510873795, 0.10846029222011566, -0.011419519782066345, 0.026163503527641296, 0.14874602854251862, -0.056953206658363342, -0.10291837900876999, -0.012340307235717773, 0.16245283186435699, -0.023938551545143127, -0.18279054760932922, -0.09325234591960907, -0.001010894775390625, 0.083217814564704895, 0.01388394832611084, -0.036819607019424438, -0.13272781670093536, 0.034836858510971069, -0.043813169002532959, 0.056733846664428711, 0.056977197527885437, 0.16323058307170868, 0.041981726884841919, 0.010010451078414917, 0.10286371409893036, -0.085791982710361481, -0.14979737997055054, 0.030238643288612366, -0.16100256145000458, 0.039126962423324585, 0.17338778078556061, -0.0019374489784240723, -0.025670766830444336, -0.1261519193649292, 0.085056081414222717, 0.13367827236652374, -0.11590482294559479, -0.033112913370132446, -0.032737106084823608, -0.052736654877662659, -0.15980154275894165, 0.17987526953220367, 0.054056927561759949, -0.051417559385299683, 0.1591804176568985, 0.046765699982643127, 0.037076860666275024, -0.1353163868188858, -0.12708477675914764, 0.045461490750312805, -0.17066335678100586, -0.057483434677124023, -0.094679810106754303, 0.084123238921165466, -0.016234621405601501, -0.0043869465589523315, 0.069779947400093079, -0.15092942118644714, 0.1697259396314621, -0.063583634793758392, -0.052640020847320557, 0.1137513667345047, -0.055216878652572632, 0.17071481049060822, 0.11141432821750641, -0.11500190943479538, -0.057678267359733582, -0.027604922652244568, 0.11392630636692047, -0.17350350320339203, 0.025936350226402283, -0.018455028533935547, -0.08066587895154953, 0.0066098719835281372, 0.11306898295879364, 0.11236025393009186, 0.086734429001808167, -0.070699885487556458, -0.10691213607788086, -0.084548480808734894, -0.063619382679462433, -0.083084955811500549, -0.069698937237262726, -0.069938056170940399, 0.12858025729656219, 
  0.17184536159038544, 0.40866091847419739, -0.088516511023044586, -0.080903925001621246, 0.17531639337539673, -0.18045291304588318, 0.046248447149991989, 0.12234122306108475, 0.11021243035793304, -0.042271595448255539, -0.18202012777328491, 0.0052295676432549953, -0.20291668176651001, 0.13371558487415314, -0.42831254005432129, 0.017439749091863632, 0.047517847269773483, 0.071424633264541626, 0.01443132758140564, 0.090845867991447449, 0.18555764853954315, -0.16778895258903503, 0.1026633158326149, -0.13571524620056152, 0.024386407807469368, -0.050055168569087982, -0.039099324494600296, -0.16163159906864166, -0.012614007107913494, -0.139361172914505, -0.09560442715883255, -0.11414727568626404, -0.094680242240428925, -0.2918468713760376, -0.19451241195201874, -0.20058701932430267, -0.29880234599113464, -0.14668314158916473, -0.041619159281253815, -0.14108477532863617, 0.069202162325382233, 0.0029592802748084068, -0.13745740056037903, 0.036169838160276413, 0.034806232899427414, -0.070741847157478333, -0.1326005756855011, -0.19433882832527161, 0.02073388546705246, -0.095481254160404205, 0.046673953533172607, -0.08971695601940155, -0.012439192272722721, -0.07180178165435791, 0.097924456000328064, -0.13941451907157898, 0.028536342084407806, 0.0051494771614670753, 0.01941981166601181, -0.066812023520469666, 0.15578898787498474, -0.08241996169090271, -0.029865259304642677, 0.010084034875035286, -0.073828548192977905, 0.071958296000957489, 0.38203981518745422, -0.15686425566673279, -0.035227097570896149, -0.027833906933665276, -0.057517420500516891, -0.19945095479488373, -0.037322677671909332, 0.12416870146989822, -0.087105095386505127, -0.18191361427307129, -0.21387587487697601, 0.058611486107110977, -0.032268509268760681, 0.12294434756040573, 0.15198045969009399, -0.15849807858467102, -0.078996568918228149, -0.075499251484870911, 0.1221759170293808, 0.065711073577404022, -0.1968289315700531, -0.12834517657756805, -0.26974603533744812, -0.091283023357391357, -0.19797299802303314, 0.18547908961772919, -0.20716066658496857, -0.18376480042934418, 0.14790979027748108, 0.038850631564855576, 0.10009811073541641, -0.00671003432944417, 0.021899748593568802, 0.053821399807929993, -0.10931216925382614, -0.11608304083347321, -0.096859164535999298, -0.10816916078329086, -0.13147084414958954, -0.22728678584098816, 0.14858843386173248, 0.1291230320930481, 0.05916280671954155, -0.29686650633811951, -0.36755919456481934, -0.19287565350532532, -0.23830175399780273, -0.3066515326499939, -0.26004317402839661, -0.21556210517883301, -0.012587269768118858, 0.18258678913116455, -0.11253686994314194, -0.062700152397155762, -0.097858734428882599, 0.12769588828086853, 0.16881287097930908, -0.24104060232639313, 0.1223950982093811, 0.15280820429325104, 0.046510409563779831, 0.034931112080812454, -0.24285730719566345, -0.047865025699138641, 0.11221906542778015, -0.35967323184013367, 0.01713855005800724, 0.12960651516914368, 0.15406882762908936, 0.10124698281288147, -0.061850890517234802, 0.079782523214817047, 0.070428341627120972, 0.05441666767001152, -0.081701844930648804, 0.14588502049446106, 0.20714926719665527, 0.140149787068367, 0.038833439350128174, -0.078049667179584503, -0.030130106955766678, 0.37639370560646057, -0.056610111147165298, 0.03706018254160881, 0.066752783954143524, -0.13317380845546722, -0.089493051171302795, -0.037657074630260468, 0.013309517875313759, 0.16906456649303436, 
  -0.15377779304981232, 0.09267059713602066, -0.099375270307064056, 0.10529386252164841, -0.017841119319200516, 0.10874295234680176, -0.015059774741530418, 0.17906741797924042, 0.0930820032954216, -0.15138879418373108, 0.15087927877902985, 0.1485108882188797, 0.091051653027534485, 0.10973135381937027, 0.08088548481464386, -0.043476983904838562, -0.14190490543842316, -0.091155260801315308, 0.06325829029083252, 0.11758938431739807, -0.11654345691204071, 0.076972194015979767, -0.11489610373973846, -0.065428212285041809, 0.11286190897226334, 0.095358707010746002, -0.133172407746315, 0.11079730093479156, 0.14928080141544342, 0.11544498056173325, -0.083801642060279846, 0.078004539012908936, 0.15511175990104675, -0.078168973326683044, 0.11285195499658585, 0.025646593421697617, 0.18087832629680634, -0.17249599099159241, 0.037084441632032394, 0.12204646319150925, -0.14768113195896149, 0.10816396772861481, -0.00051529554184526205, 0.14357639849185944, 0.17137138545513153, -0.14366526901721954, -0.010482712648808956, -0.11905317008495331, 0.10548663139343262, 0.081195026636123657, -0.12188971787691116, -0.008703514002263546, -0.038672931492328644, -0.18085460364818573, 0.040492769330739975, -0.14293205738067627, -0.15879768133163452, -0.18205562233924866, -0.07684268057346344, -0.024149378761649132, 0.16137126088142395, 0.059441119432449341, 0.16935352981090546, 0.12762968242168427, -0.12372180074453354, -0.16695484519004822, 0.10602115839719772, -0.16009832918643951, -0.11811508983373642, -0.16969017684459686, 0.10165391862392426, -0.098419763147830963, -0.10148686915636063, -0.13137614727020264, 0.042090460658073425, 0.064753398299217224, -0.042429670691490173, 0.18591682612895966, 0.062485355883836746, 0.17430584132671356, 0.033441614359617233, 0.11461550742387772, 0.12337657809257507, -0.053322218358516693, -0.031538721174001694, -0.14436990022659302, -0.013182900846004486, -0.067633740603923798, 0.11362414062023163, -0.070863477885723114, 0.075884163379669189, 0.058700732886791229, -0.14734269678592682, 0.019631927832961082, 0.14732134342193604, -0.072577774524688721, -0.10594483464956284, -0.033910106867551804, 0.14518776535987854, -0.041046563535928726, -0.056441668421030045, -0.01314674224704504, 0.14905542135238647, -0.10370437055826187, -0.089795239269733429, -0.0076214657165110111, 0.019075075164437294, -0.052003484219312668, 0.029813895002007484, 0.053466808050870895, -0.14999932050704956, 0.031012212857604027, -0.0034498001914471388, 0.13575300574302673, 0.013652514666318893, 0.16662029922008514, -0.16202805936336517, 0.0046262945979833603, 0.12945298850536346, -0.012883741408586502, -0.17215383052825928, 0.14337854087352753, 0.0041916631162166595, 0.054880574345588684, -0.1555790901184082, 0.0048658703453838825, -0.0047588152810931206, -0.11290276050567627, 0.041967768222093582, 0.055476710200309753, -0.072073571383953094, -0.1616472452878952, -0.050282929092645645, 0.15599167346954346, -0.038462135940790176, -0.0924859419465065, -0.12344999611377716, 0.036059550940990448, 0.012248554266989231, 0.12124047428369522, 0.10790931433439255, 0.1176462322473526, 0.042744815349578857, -0.072541527450084686, 0.035525988787412643, 0.038339663296937943, -0.078307077288627625, -0.1268298476934433, -0.064265511929988861, -0.13947196304798126, -0.049878403544425964, -0.11761928349733353, 0.14361570775508881, 0.16026991605758667, -0.11375857889652252, 0.065485820174217224, 
  0.21678583323955536, 0.12186893820762634, 0.034743037074804306, -0.095068834722042084, -0.10460439324378967, -0.13893069326877594, 0.10089337080717087, -0.015769375488162041, -0.13037267327308655, 0.13287153840065002, -0.09195641428232193, 0.057812318205833435, -0.154703289270401, -0.092103675007820129, -0.29472938179969788, 0.28480461239814758, 0.12418469786643982, 0.16091381013393402, -0.022517213597893715, -0.056032974272966385, -0.025970863178372383, 0.15154612064361572, -0.041187815368175507, -0.040507029742002487, -0.062983587384223938, -0.0074098631739616394, 0.23969180881977081, -0.23842959105968475, -0.15497638285160065, -0.12992015480995178, 0.11217877268791199, -0.051246806979179382, 0.15231360495090485, -0.078938089311122894, -0.067569203674793243, -0.04295753687620163, -0.065326586365699768, -0.12353024631738663, 0.030347647145390511, 0.052552182227373123, 0.24115696549415588, 0.1344534307718277, -0.15369993448257446, -0.055648639798164368, 0.10216748714447021, -0.059733960777521133, 0.12888464331626892, 0.18406422436237335, -0.042461011558771133, 0.21091324090957642, 0.10800278931856155, 0.22513334453105927, -0.22811430692672729, -0.16219271719455719, -0.11312258243560791, 0.17763456702232361, 0.1194431260228157, 0.13158780336380005, 0.16280682384967804, 0.087313525378704071, -0.15234485268592834, -0.17033642530441284, 0.16992872953414917, 0.1417108029127121, 0.013836897909641266, 0.050383619964122772, 0.03836427628993988, 0.049211051315069199, -0.17801547050476074, -0.042924683541059494, -0.11556105315685272, 0.071820296347141266, 0.18235073983669281, 0.086897306144237518, 0.14339078962802887, 0.1169126108288765, 0.014677438884973526, -0.022349931299686432, 0.0019871869590133429, -0.077683940529823303, 0.13071878254413605, -0.10916581749916077, 0.20358051359653473, -0.072205953299999237, 0.11296593397855759, -0.049966949969530106, -0.054763708263635635, -0.15347203612327576, 0.046264830976724625, -0.09365498274564743, -0.050058338791131973, -0.0077324439771473408, -0.12076471745967865, 0.35471442341804504, 0.021247627213597298, 0.082709148526191711, 0.10022053867578506, -0.074802964925765991, -0.18892857432365417, -0.12953044474124908, -0.0047390428371727467, -0.13034346699714661, 0.01312079094350338, -0.07468327134847641, 0.28057605028152466, -0.61388307809829712, -0.28483107686042786, 0.083714045584201813, 0.13666994869709015, 0.12296729534864426, -0.13749019801616669, -0.015431651845574379, -0.13049973547458649, 0.011676977388560772, 0.068029701709747314, -0.012035859748721123, -0.058546379208564758, -0.12781727313995361, 0.012336867861449718, 0.02980884350836277, 0.16879230737686157, 0.076982103288173676, -0.12186781316995621, -0.0014124548761174083, -0.14351801574230194, 0.064149424433708191, 0.27241161465644836, -0.1399061530828476, -0.11271108686923981, 0.06779768317937851, -0.1162143349647522, -0.050932310521602631, -0.18528614938259125, -0.013420656323432922, 0.011985036544501781, -0.086570285260677338, 0.10932015627622604, 0.10436316579580307, -0.19794809818267822, 0.15361030399799347, 0.10562628507614136, 0.0053254715166985989, 0.082325294613838196, -0.010007677599787712, 0.17000028491020203, -0.23612998425960541, 0.18939590454101562, 0.13412544131278992, -0.13150785863399506, -0.15877476334571838, 0.021886937320232391, 0.097609966993331909, 0.048171527683734894, -0.053075458854436874, 0.14414545893669128, 0.22441466152667999, 
  -0.03367176279425621, 0.14945623278617859, 0.065357379615306854, 0.033862031996250153, -0.022229308262467384, -0.15565414726734161, 0.042437091469764709, 0.15101966261863708, -0.063070155680179596, 0.0069872173480689526, -0.16261811554431915, -0.098644748330116272, -0.18563331663608551, -0.05768502876162529, -0.27532926201820374, -0.049095354974269867, -0.15171505510807037, 0.026570335030555725, -0.08189789205789566, 0.015518778935074806, -0.1880698949098587, -0.15696831047534943, -0.064584575593471527, -0.10283797979354858, 0.087518692016601562, -0.060601096600294113, -0.12756635248661041, -0.1906292736530304, -0.06686054915189743, 0.21262550354003906, -0.018198750913143158, -0.11291135102510452, 0.079992890357971191, -0.1993015855550766, -0.020292814821004868, -0.2536005973815918, 0.066719822585582733, -0.18825462460517883, 0.013108883053064346, 0.13970324397087097, -0.013718735426664352, -0.062529332935810089, -0.077301740646362305, 0.0070840497501194477, 0.060196630656719208, -0.17612817883491516, -0.12434276938438416, -0.13408644497394562, -0.00067255611065775156, 0.098417110741138458, 0.16187720000743866, -0.0480777807533741, 0.12350386381149292, -0.26282516121864319, -0.02425672858953476, 0.1428486555814743, 0.081797629594802856, 0.029438210651278496, 0.15648086369037628, 0.071976587176322937, 0.092588327825069427, -0.11290455609560013, 0.17565371096134186, -0.081776060163974762, -0.013683990575373173, -0.0090322168543934822, 0.13527362048625946, 0.17431992292404175, 0.21169668436050415, 0.14678050577640533, 0.17999342083930969, -0.031076535582542419, 0.12241441756486893, -0.080379724502563477, -0.19149920344352722, -0.061828780919313431, -0.035976365208625793, 0.019957747310400009, 0.12150127440690994, 0.0031401668675243855, -0.11277654021978378, 0.031267613172531128, -0.13130143284797668, 0.10201675444841385, -0.051784209907054901, -0.17454372346401215, 0.02445966936647892, -0.0099092889577150345, 0.15551474690437317, -0.082660645246505737, -0.029774310067296028, -0.14804129302501678, -0.4701286256313324, 0.17395962774753571, -0.018966354429721832, -0.084125086665153503, -0.19084553420543671, -0.017207369208335876, -0.026655156165361404, 0.056239992380142212, -0.098354920744895935, 0.0059724664315581322, 0.096193462610244751, -0.17387327551841736, -0.14326284825801849, -0.17627698183059692, 0.18291592597961426, -0.086098156869411469, 0.055970918387174606, 0.017101429402828217, -0.097170904278755188, -0.14673073589801788, -0.0095752673223614693, 0.039476078003644943, 0.059110991656780243, -0.014866789802908897, 0.041326005011796951, -0.15801721811294556, -0.08542855829000473, -0.20269274711608887, -0.22510984539985657, -0.17686854302883148, -0.095667541027069092, 0.018712587654590607, 0.062898643314838409, 0.21653862297534943, 0.015299576334655285, -0.036265440285205841, -0.035089660435914993, -0.087879709899425507, 0.093346118927001953, -0.22977040708065033, -0.20501060783863068, -0.043307408690452576, -0.037624362856149673, 0.25330868363380432, 0.10875096172094345, -0.12678772211074829, 0.20573478937149048, 0.26006293296813965, 0.15260782837867737, 0.09832385927438736, 0.13488554954528809, -0.081527508795261383, 0.21373419463634491, -0.0064158430323004723, 0.21281906962394714, 0.44598817825317383, 0.20314234495162964, -0.0052887345664203167, 0.21608209609985352, 0.078751400113105774, 0.11859669536352158, -0.14450182020664215, 0.12054509669542313, 0.026652846485376358, 
  0.020294202491641045, -0.247484490275383, -0.11823166161775589, -0.1278371661901474, -0.14017616212368011, -0.21054361760616302, -0.087159126996994019, 0.13913041353225708, -0.078629978001117706, 0.027642266824841499, -0.018805669620633125, -0.00023586324823554605, -0.0092872809618711472, 0.080061338841915131, -0.027659086510539055, -0.095252662897109985, -0.10785882174968719, -0.13212992250919342, 0.1941845566034317, 0.16786801815032959, -0.06491958349943161, 0.060711212456226349, -0.059150110930204391, 0.14607109129428864, -0.049611408263444901, 0.0081890719011425972, 0.13450412452220917, -0.23567597568035126, 0.20322403311729431, 0.0045359339565038681, 0.067952901124954224, -0.15927734971046448, 0.010593822225928307, -0.020987411960959435, -0.13251075148582458, 0.11005278676748276, -0.15519960224628448, 0.079825699329376221, -0.136370450258255, 0.23848468065261841, -0.17418596148490906, -0.055551405996084213, -0.051757335662841797, -0.039131835103034973, -0.065541476011276245, -0.10105808079242706, 0.2349977046251297, -0.009127400815486908, 0.061152078211307526, 0.062556304037570953, -0.03483281284570694, 0.25514611601829529, -0.1623958945274353, 0.40719300508499146, 0.10202322900295258, -0.045963913202285767, -0.0072051547467708588, 0.12634848058223724, 0.072956010699272156, -0.081999801099300385, -0.13474118709564209, 0.0077711385674774647, 0.11421071738004684, -0.11854054033756256, 0.073341138660907745, 0.03461911529302597, -0.18129068613052368, 0.099639952182769775, -0.16464947164058685, -0.12766247987747192, 0.032786250114440918, 0.16136159002780914, -0.014053474180400372, 0.10238318890333176, 0.11704172194004059, 0.14293795824050903, 0.15815065801143646, 0.17047779262065887, -0.010971389710903168, -0.28386443853378296, 0.086456052958965302, -0.059056781232357025, -0.29989480972290039, -0.047164108604192734, -0.08660423755645752, 0.01479688286781311, 0.093856297433376312, 0.0014697393635287881, -0.051495511084794998, -0.088803596794605255, -0.13409723341464996, 0.086531095206737518, -0.1021672859787941, 0.23922908306121826, -0.28794589638710022, -0.30100777745246887, -0.072097115218639374, -0.14099738001823425, -0.1531410813331604, 0.021665465086698532, -0.034092985093593597, -0.034636229276657104, 0.018703276291489601, -0.037075001746416092, 0.13896220922470093, -0.010630249977111816, 0.028787123039364815, -0.19244381785392761, -0.14476191997528076, -0.11507908254861832, -0.11645092815160751, 0.073952831327915192, 0.10753984004259109, -0.21390242874622345, 0.067053116858005524, -0.026973530650138855, 0.079244665801525116, -0.029910268262028694, -0.35287764668464661, -0.0071531957946717739, -0.1335645318031311, -0.022699484601616859, -0.19318133592605591, 0.014956651255488396, -0.0027718439232558012, -0.039172358810901642, 0.081690564751625061, 0.16403470933437347, -0.0072547011077404022, -0.085104390978813171, 0.070780664682388306, -0.052731931209564209, 0.182148277759552, 0.04751373827457428, 0.12773951888084412, 0.12253186106681824, -0.14504364132881165, 0.073866106569766998, 0.13577589392662048, 0.16888397932052612, 0.059358373284339905, 0.11438719183206558, -0.058669652789831161, -0.18807204067707062, -0.13824684917926788, 0.037165798246860504, 0.063573457300662994, -0.27717092633247375, 0.10552327334880829, 0.087693080306053162, -0.072976626455783844, 0.18008421361446381, -0.020669892430305481, 0.16787980496883392, -0.042053524404764175, -0.11809380352497101, 
  0.23695291578769684, -0.20006029307842255, 0.1266578733921051, 0.18530027568340302, 0.1556626558303833, 0.24183072149753571, 0.14031387865543365, 0.099699430167675018, 0.0018291154410690069, 0.16375799477100372, 0.00053309695795178413, 0.18119995296001434, -0.01072736456990242, 0.29260966181755066, 0.065743044018745422, -0.16486543416976929, 0.01112613920122385, -0.011786208488047123, -0.081894420087337494, 0.12269504368305206, 0.1468660831451416, -0.16253656148910522, -0.10878089815378189, -0.055739086121320724, -0.055785931646823883, 0.13219276070594788, 0.21639329195022583, 0.39994621276855469, -0.44043615460395813, 0.03805059939622879, 0.11069951206445694, 0.32327401638031006, 0.11286371201276779, -0.092627063393592834, -0.016254838556051254, -0.11943367123603821, 0.0063344407826662064, 0.095092236995697021, 0.16481877863407135, 0.013804576359689236, -0.19033606350421906, 0.18158487975597382, 0.23891705274581909, 0.22567078471183777, 0.11855177581310272, 0.03067571297287941, 0.099152736365795135, -0.10593745857477188, -0.045679852366447449, 0.13549578189849854, -0.062426190823316574, -0.00084126077126711607, -0.035979125648736954, 0.052468594163656235, -0.017530867829918861, -0.052175067365169525, -0.087541699409484863, 0.20901215076446533, 0.19824764132499695, -0.099155373871326447, -0.032837606966495514, 0.024424735456705093, 0.17418681085109711, -0.04709981381893158, 0.19952955842018127, 0.12082220613956451, -0.15780772268772125, -0.15118977427482605, -0.029201533645391464, 0.23560142517089844, -0.049024000763893127, 0.071326211094856262, 0.014176961965858936, 0.11304797977209091, 0.043339021503925323, 0.060817442834377289, -0.021855577826499939, 0.14921917021274567, -0.00071814411785453558, 0.1272079199552536, 0.25739178061485291, -0.12323439121246338, -0.0063053923659026623, 0.12844085693359375, 0.068254761397838593, -0.22036451101303101, 0.19383843243122101, 0.15665516257286072, 0.19889819622039795, -4.8252579290419817e-05, -0.011211827397346497, 0.066388435661792755, 0.24643546342849731, -0.12283352017402649, 0.030536908656358719, 0.062689855694770813, 0.058324370533227921, -0.037435870617628098, 0.031432189047336578, 0.13607154786586761, -0.11869015544652939, 0.076431587338447571, 0.0053619821555912495, -0.14340212941169739, 0.22314764559268951, 0.17861919105052948, -0.16354775428771973, -0.074261531233787537, 0.25692230463027954, 0.18077783286571503, 0.12101940810680389, 0.020446138456463814, 0.12736234068870544, 0.17577539384365082, 0.20882678031921387, -0.042649850249290466, 0.19700592756271362, 0.029022300615906715, -0.17109830677509308, 0.2254670113325119, 0.031807892024517059, 0.20438475906848907, 0.063622370362281799, -0.079007863998413086, 0.10787379741668701, 0.067222215235233307, -0.16832429170608521, -0.10377279669046402, 0.034601133316755295, 0.00053366983775049448, 0.085390232503414154, 0.16351526975631714, 0.087941043078899384, 0.047922872006893158, -0.18843859434127808, 0.1438526064157486, 0.012045015580952168, 0.03685523197054863, 0.073969081044197083, 0.018542710691690445, 0.04289548471570015, 0.14773887395858765, 0.11877817660570145, 0.1870286613702774, -0.0013419145252555609, 0.097768150269985199, -0.016380170360207558, -0.40113213658332825, 0.17233043909072876, 0.08328644186258316, 0.10214280337095261, -0.015283428132534027, 0.076053626835346222, 0.18471330404281616, 0.2111172080039978, 0.10244444757699966, 
  0.10005657374858856, 0.17523153126239777, 0.10956026613712311, -0.031228497624397278, -0.15688985586166382, 0.11317814886569977, -0.021461844444274902, -0.10813771933317184, -0.014901444315910339, -0.029149129986763, 0.012205109000205994, 0.11173041164875031, 0.1059635728597641, -0.066636353731155396, 0.029496759176254272, -0.07818564772605896, 0.075213536620140076, -0.084940530359745026, 0.18055583536624908, 0.037321791052818298, 0.16757206618785858, 0.12387345731258392, 0.16321410238742828, 0.074716314673423767, 0.11282344162464142, 0.11642937362194061, 0.13082475960254669, -0.016930550336837769, 0.15122963488101959, -0.15958887338638306, 0.10162319242954254, -0.1732364296913147, -0.026853621006011963, -0.0025458186864852905, -0.15026576817035675, -0.051489502191543579, -0.15967026352882385, 0.15415395796298981, -0.1210666298866272, 0.017138153314590454, -0.092172026634216309, -0.094536483287811279, -0.16567401587963104, -0.070766843855381012, -0.16002899408340454, 0.053803324699401855, -0.063837677240371704, -0.023051738739013672, -0.095366537570953369, 0.054747045040130615, -0.16874302923679352, -0.17887859046459198, 0.18152521550655365, -0.11493829637765884, 0.093432649970054626, 0.087257310748100281, 0.024403929710388184, 0.085728511214256287, -0.018572047352790833, -0.068414844572544098, 0.11640577018260956, -0.041656315326690674, 0.15463484823703766, -0.072824597358703613, 0.010309353470802307, -0.17407999932765961, 0.15734641253948212, 0.13128812611103058, 0.11311425268650055, -0.093325994908809662, -0.077186636626720428, -0.055394113063812256, 0.030157819390296936, -0.14687752723693848, -0.056723460555076599, -0.16374048590660095, -0.13252672553062439, -0.082642152905464172, -0.10215839743614197, 0.15459407866001129, -0.090051673352718353, -0.10528194904327393, -0.14237549901008606, -0.084012918174266815, 0.15386597812175751, 0.038983941078186035, -0.0083324611186981201, 0.065368190407752991, 0.10482887923717499, 0.099838718771934509, 3.2484531402587891e-05, -0.16571949422359467, -0.16463881731033325, -0.041154652833938599, 0.13946707546710968, -0.012823030352592468, 0.16653294861316681, 0.043803170323371887, 0.081204816699028015, -0.1011383906006813, -0.12679560482501984, -0.11083510518074036, -0.082956857979297638, 0.081180796027183533, 0.02027679979801178, 0.13144733011722565, -0.045801818370819092, 0.021224826574325562, 0.04666370153427124, -0.017035439610481262, -0.081683509051799774, 0.12072031199932098, 0.03215356171131134, 0.083205059170722961, 0.14251385629177094, 0.16907064616680145, 0.060319840908050537, -0.11483410000801086, 0.15146626532077789, -0.047048836946487427, 0.12737734615802765, 0.14552371203899384, 0.0090034753084182739, -0.05478331446647644, 0.09571482241153717, -0.16857196390628815, 0.032848566770553589, 0.17830516397953033, -0.16419096291065216, 0.13850091397762299, -0.16573846340179443, 0.14281032979488373, -0.183975949883461, -0.051781788468360901, -0.12780433893203735, -0.0040214061737060547, -0.131866455078125, 0.16139619052410126, 0.045374363660812378, 0.15530048310756683, 0.15415738523006439, -0.0098832696676254272, 0.12528915703296661, -0.099872477352619171, -0.14822526276111603, 0.024141401052474976, 0.076555326581001282, -0.12583199143409729, -0.16453129053115845, -0.10788662731647491, 0.16214297711849213, 0.10192419588565826, -0.097375921905040741, -0.12332076579332352, -0.088030099868774414, 0.10728736221790314, 
  -0.24845671653747559, 0.184064581990242, -0.13157995045185089, 0.037439167499542236, -0.07598702609539032, -0.011580441147089005, -0.21994414925575256, -0.1172286793589592, -0.15490159392356873, -0.29507380723953247, -0.21162514388561249, -0.23440946638584137, -0.23920707404613495, -0.12209286540746689, 0.079661272466182709, 0.15272633731365204, 0.028076427057385445, 0.1297544538974762, 0.030180126428604126, -0.20992298424243927, -0.13780279457569122, 0.02674020454287529, -0.06118466705083847, 0.083122722804546356, 0.088676176965236664, 0.036831744015216827, 0.0024762370157986879, 0.22813250124454498, 0.012112361378967762, 0.14232806861400604, -0.027371600270271301, -0.16135777533054352, -0.22094877064228058, -0.092314809560775757, 0.045913081616163254, -0.027918696403503418, 0.042586341500282288, 0.055674061179161072, -0.10732295364141464, -0.046739991754293442, -0.25366708636283875, 0.16892361640930176, -0.032099030911922455, 0.11414271593093872, -0.13337299227714539, -0.32023316621780396, -0.026142243295907974, -0.10567654669284821, -0.01098143681883812, -0.33780503273010254, -0.082342930138111115, -0.02554546482861042, -0.17258250713348389, -0.071577034890651703, 0.16442818939685822, 0.096544399857521057, 0.16489104926586151, 0.042870029807090759, -0.16165775060653687, 0.035067208111286163, -0.19738128781318665, -0.15654231607913971, -0.18986694514751434, 0.064540967345237732, -0.067816741764545441, -0.042158391326665878, -0.36136850714683533, 0.016893129795789719, -0.060257852077484131, 0.14240755140781403, -0.12132163345813751, 0.053843129426240921, 0.070220030844211578, -0.11650114506483078, -0.15213274955749512, -0.28073155879974365, 0.036605682224035263, -0.20034296810626984, -0.28897145390510559, 0.33024358749389648, -0.01376805454492569, 0.26762127876281738, -0.064004406332969666, -0.22976653277873993, -0.25788608193397522, 0.032391063868999481, -0.16795884072780609, -0.21806676685810089, 0.03032161109149456, -0.023855512961745262, 0.070095397531986237, -0.0281718410551548, -0.0053030666895210743, 0.03058817982673645, 0.11391869187355042, 0.047244306653738022, -0.15995514392852783, -0.22999551892280579, -0.22303208708763123, -0.20578350126743317, -0.012161804363131523, -0.22416529059410095, -0.23557174205780029, -0.1200464591383934, 0.016266772523522377, 0.21470747888088226, -0.28161710500717163, -0.083390749990940094, 0.054609790444374084, -0.013633042573928833, 0.055080138146877289, -0.15415447950363159, -0.1315152496099472, -0.15123510360717773, 0.082665875554084778, 0.02744501456618309, 0.054164707660675049, 0.030031340196728706, -0.15941877663135529, 0.18861974775791168, 0.32332342863082886, -0.0011211943347007036, -0.08623136579990387, 0.085755139589309692, -0.25058227777481079, -0.091965161263942719, -0.097010247409343719, -0.21916699409484863, -0.18446306884288788, -0.07903715968132019, -0.077427662909030914, -0.016822138801217079, 0.1521095484495163, 0.079294927418231964, -0.038529425859451294, 0.11585239320993423, 0.13272559642791748, -0.036890827119350433, 0.023676095530390739, -0.23743440210819244, 0.098643697798252106, -0.21387133002281189, 0.00042297522304579616, -0.02675970271229744, -0.062121622264385223, 0.045943420380353928, 0.22105462849140167, -0.074685022234916687, -0.18396738171577454, -0.066364407539367676, -0.26322212815284729, -0.24089059233665466, -0.2258518785238266, -0.22206355631351471, 0.067540034651756287, -0.23409129679203033, 
  0.43408718705177307, -0.26664674282073975, -0.043591413646936417, -0.12888143956661224, -0.1228705570101738, 0.021485118195414543, 0.20491480827331543, 0.0030730527359992266, 0.047500580549240112, 0.025805886834859848, -0.090479709208011627, 0.017654672265052795, 0.094401076436042786, -0.31646931171417236, 0.072693496942520142, -0.025035211816430092, 0.066409431397914886, 0.064789503812789917, -0.0055083958432078362, 0.0041732294484972954, -0.23882319033145905, 0.042481318116188049, -0.25078132748603821, 0.09678361564874649, 0.068865686655044556, -0.078329011797904968, 0.086536303162574768, -0.2278275191783905, -0.0030579559970647097, 0.19638743996620178, -0.10437574982643127, -0.10144595056772232, -0.11946284025907516, -0.041104171425104141, 0.19049492478370667, 0.1509258896112442, -0.049418263137340546, -0.15616443753242493, -0.14213533699512482, 0.036190539598464966, 0.14799584448337555, 0.29342168569564819, 0.083938218653202057, 0.022857444360852242, -0.0090731838718056679, 0.14358916878700256, 0.055643446743488312, -0.17290778458118439, 0.14446844160556793, 0.061053134500980377, -0.022866187617182732, -0.12716487050056458, -0.052901182323694229, 0.22216452658176422, -0.17437806725502014, 0.23025508224964142, -0.051850516349077225, 0.003945725504308939, 0.099337555468082428, 0.042387519031763077, 0.09913954883813858, 0.13278277218341827, 0.16533719003200531, 0.19382606446743011, 0.092432886362075806, -0.22824741899967194, -0.62572884559631348, -0.0062538762576878071, 0.16176353394985199, 0.13862040638923645, 0.16240283846855164, 0.049298495054244995, -0.062682390213012695, -0.059718761593103409, -0.04328685998916626, 0.16701845824718475, -0.0004497813933994621, -0.10906793922185898, 0.32317903637886047, -0.085086382925510406, -0.21806606650352478, -0.076169833540916443, -0.06961454451084137, -0.0019357937853783369, -0.082296073436737061, 0.017172539606690407, 0.048883929848670959, 0.13265201449394226, 0.0068943249061703682, -0.062809847295284271, -0.0024044560268521309, -0.012798314914107323, -0.11346650868654251, 0.11841093003749847, 0.010812473483383656, -0.21066464483737946, -0.2833615243434906, 0.072564810514450073, -0.16002416610717773, -0.012845424935221672, 0.012109884060919285, 0.020531186833977699, 0.015519896522164345, -0.014048143289983273, 0.22098399698734283, -0.52097499370574951, -0.02711215615272522, -0.1695028692483902, -0.033921089023351669, 0.12560997903347015, 0.12962113320827484, 0.05786127969622612, 0.10484176129102707, 0.11713217943906784, -0.18292941153049469, 0.00119007658213377, -0.036556877195835114, 0.13359858095645905, 0.13540272414684296, 0.32200163602828979, -0.043779142200946808, -0.12428669631481171, -0.047371108084917068, -0.086271047592163086, 0.18809688091278076, 0.048519954085350037, -0.20370672643184662, 0.046733196824789047, 0.12764999270439148, -0.16514630615711212, 0.096013553440570831, 0.19971476495265961, -0.44169461727142334, -0.13327233493328094, 0.00094032706692814827, 0.13541331887245178, 0.006740259937942028, -0.1344100683927536, 0.23014622926712036, 0.15704569220542908, -0.022802937775850296, -0.073923595249652863, -0.028928246349096298, 0.0085876332595944405, -0.35311147570610046, -0.11504288017749786, -0.01114712655544281, -0.092109285295009613, 0.10779441148042679, 0.010607045143842697, 0.0058111893013119698, 0.12626852095127106, 0.13248778879642487, 0.19004629552364349, -0.10859201103448868, -0.14647926390171051, 
  -0.014548953622579575, 0.08261929452419281, 0.12148567289113998, -0.076074190437793732, -0.14671662449836731, -0.18819727003574371, 0.23466767370700836, -0.030070388689637184, 0.16746900975704193, -0.0022674815263599157, 0.20261920988559723, 0.20833082497119904, 0.14246959984302521, 0.05373624712228775, -0.2525562047958374, 0.079342253506183624, -0.10965729504823685, -0.10127474367618561, 0.10022632777690887, 0.033443164080381393, -0.048456709831953049, -0.017483966425061226, 0.17551587522029877, 0.037446554750204086, 0.059398185461759567, 0.091596856713294983, 0.12061937153339386, -0.096964627504348755, 0.18524329364299774, 0.036602698266506195, -0.052908062934875488, 0.022859478369355202, 0.049614455550909042, -0.035993825644254684, 0.085060112178325653, -0.0035486090928316116, -0.089141160249710083, 0.08242383599281311, 0.081373795866966248, 0.097704946994781494, 0.024959983304142952, 0.23930306732654572, 0.13126102089881897, -0.05050995945930481, -0.11473691463470459, -0.082114323973655701, 0.022364763543009758, 0.059077911078929901, -0.17510312795639038, -0.040318280458450317, -0.15292127430438995, 0.097240731120109558, -0.026490064337849617, 0.17101654410362244, 0.11045151948928833, 0.066698521375656128, 0.044421281665563583, -0.063501238822937012, -0.0093905888497829437, -0.18039818108081818, 0.10154661536216736, 0.063924223184585571, -0.034948129206895828, -0.084536522626876831, 0.086045496165752411, 0.11455374211072922, 0.32971364259719849, 0.20502442121505737, -0.065370053052902222, -0.06627386063337326, -0.15145048499107361, 0.014693035744130611, -0.10459694266319275, -0.097267627716064453, 0.14937195181846619, 0.074072346091270447, 0.084263890981674194, 0.16095362603664398, 0.10149373859167099, 0.082454942166805267, 0.022653155028820038, 0.13322292268276215, 0.0022588325664401054, 0.052434850484132767, -0.10904552042484283, -0.11226308345794678, -0.073941536247730255, 0.16583840548992157, 0.037350572645664215, 0.17570984363555908, 0.15526175498962402, -0.2703489363193512, -0.43123865127563477, 0.18900895118713379, -0.025999929755926132, 0.058472465723752975, -0.04794846847653389, 0.092055685818195343, -0.026345344260334969, -0.060869604349136353, -0.014523286372423172, -0.0042085060849785805, 0.14395861327648163, 0.099658221006393433, 0.12304089218378067, -0.11625729501247406, -0.049098238348960876, 0.18057696521282196, 0.088959284126758575, -0.10120526701211929, -0.026504527777433395, 0.02769857831299305, 0.14052568376064301, 0.10364343971014023, -0.13538992404937744, -0.084448099136352539, -0.14514753222465515, 0.026620713993906975, 0.052019581198692322, 0.20846098661422729, 0.15710648894309998, 0.093155369162559509, -0.0093695791438221931, -0.069820329546928406, -0.034815296530723572, -0.053302783519029617, -0.091966748237609863, -0.14188991487026215, 0.18416529893875122, 0.14236955344676971, -0.16226775944232941, 0.1606186181306839, 0.050564806908369064, -0.052654098719358444, -0.028326705098152161, 0.0046000988222658634, -0.18253965675830841, 0.097161971032619476, -0.10272675007581711, 0.094586014747619629, -0.02735426276922226, -0.018196301534771919, -0.07887992262840271, 0.10598672926425934, 0.3066551685333252, -0.042054418474435806, -0.04904576763510704, 0.11210829764604568, -0.14159767329692841, -0.10244305431842804, 0.12956084311008453, -0.1215510219335556, -0.022697474807500839, 0.021289315074682236, -0.047015562653541565, 0.046726953238248825, 
  -0.098682917654514313, -0.16356486082077026, -0.011931970715522766, -0.071976937353610992, 0.097871623933315277, -0.15564140677452087, -0.10267888754606247, -0.17017373442649841, -0.13978180289268494, 0.096490614116191864, -0.033644165843725204, -0.16065609455108643, 0.053958579897880554, 0.082686394453048706, -0.075806967914104462, 0.11956518143415451, 0.01024217251688242, -0.074882380664348602, 0.15150529146194458, -0.044787779450416565, 0.092220522463321686, 0.1101553812623024, -0.10704874247312546, 0.12220202386379242, 0.099829345941543579, -0.049977678805589676, -0.0020753492135554552, -0.09578908234834671, 0.13732419908046722, -0.061071161180734634, -0.089894220232963562, 0.043793588876724243, -0.17049743235111237, 0.17237062752246857, 0.12168028205633163, 0.12224384397268295, 0.15678007900714874, -0.11124961078166962, -0.14553675055503845, -0.12597805261611938, -0.019929567351937294, 0.021837798878550529, -0.16056053340435028, -0.10114056617021561, -0.19665579497814178, -0.08640984445810318, 0.15443412959575653, 0.08921477198600769, -0.041394297033548355, 0.16784659028053284, 0.10730087757110596, -0.17623385787010193, -0.19722747802734375, 0.045427970588207245, -0.1362910121679306, -0.19220425188541412, -0.13513153791427612, 0.041089806705713272, -0.049861360341310501, 0.06540573388338089, -0.075546003878116608, -0.14687785506248474, -0.15506128966808319, 0.10630626231431961, 0.014327842742204666, 0.030196411535143852, 0.11965817213058472, 0.072001837193965912, 0.0021720314398407936, 0.11169946193695068, -0.014512207359075546, -0.099352262914180756, 0.069114677608013153, 0.10511922091245651, 0.036060187965631485, -0.1931443065404892, -0.086099155247211456, 0.1266682893037796, -0.17226666212081909, -0.14885467290878296, 0.015481541864573956, 0.065920986235141754, 0.14687702059745789, 0.12108232080936432, 0.1749405711889267, 0.14725610613822937, -0.15833878517150879, -0.098039224743843079, 0.015426685102283955, 0.12158852815628052, -0.12007107585668564, 0.15002341568470001, 0.026166612282395363, 0.018537411466240883, -0.13805477321147919, -0.16645984351634979, 0.066706635057926178, 0.020625187084078789, 0.12253432720899582, -0.034027818590402603, -0.11616203933954239, 0.11350474506616592, 0.097853213548660278, 0.066955432295799255, -0.020247709006071091, -0.15373244881629944, -0.027860146015882492, 0.13717564940452576, 0.10420925170183182, 0.037850692868232727, -0.0033918248955160379, -0.05445224791765213, 0.014287666417658329, -0.081492014229297638, -0.11630625277757645, 0.03998912125825882, -0.076882831752300262, -0.073525168001651764, 0.16797389090061188, 0.092405706644058228, 0.094708070158958435, -0.0073328823782503605, 0.050457868725061417, -0.11270224303007126, 0.045691724866628647, 0.059440869837999344, -0.19707947969436646, 0.084264442324638367, -0.11474190652370453, 0.13943043351173401, -0.024256950244307518, 0.1025407686829567, 0.15588568150997162, -0.023900028318166733, 0.052023280411958694, 0.1541503369808197, 0.086301974952220917, -0.021653695032000542, 0.12796704471111298, 0.16984675824642181, 0.10127818584442139, 0.024442967027425766, 0.13267859816551208, -0.060768570750951767, -0.070603780448436737, -0.043721467256546021, -0.19378678500652313, 0.11152646690607071, -0.072306565940380096, -0.19679988920688629, 0.028567725792527199, -0.14766743779182434, -0.024447368457913399, 0.046731382608413696, -0.026664510369300842, 0.16309894621372223, 
  0.23809720575809479, -0.27144390344619751, -0.090325407683849335, -0.0017202658345922828, 0.10735419392585754, 0.26602345705032349, -0.11075825244188309, 0.19084970653057098, 0.0010616736253723502, 0.055171798914670944, 0.055677581578493118, 0.057565785944461823, 0.1815468966960907, 0.28893500566482544, 0.0079074567183852196, -0.1329832524061203, -0.163233682513237, -0.061133209615945816, -0.13093040883541107, -0.08151659369468689, -0.16221801936626434, -0.16686756908893585, -0.036578889936208725, -0.084458209574222565, -0.10636080801486969, -0.20704817771911621, 0.070991389453411102, 0.042355343699455261, -0.050722446292638779, 0.048771310597658157, 0.063024282455444336, -0.11458555608987808, -0.11409953236579895, -0.16815322637557983, -0.017279975116252899, 0.04604455828666687, 0.086701318621635437, -0.013929489068686962, 0.15102620422840118, 0.065888606011867523, 0.23675066232681274, 0.021109150722622871, 0.2051960676908493, -0.085718154907226562, 0.17011229693889618, -0.33047077059745789, -0.14765617251396179, -0.29121708869934082, 0.0069986372254788876, -0.26050961017608643, -0.10843154042959213, -0.27244934439659119, -0.15375961363315582, -0.34873485565185547, 0.60000163316726685, -0.014869773760437965, 0.083053134381771088, 0.17286887764930725, 0.098807148635387421, -0.020197927951812744, -0.040643785148859024, -0.078582614660263062, -0.10415779799222946, -0.17252792418003082, 0.036266885697841644, 0.16827768087387085, 0.57795536518096924, 0.25950202345848083, 0.092841669917106628, 0.22615711390972137, -0.092136301100254059, -0.034571386873722076, 0.12006757408380508, -0.11023280024528503, 0.057268228381872177, -0.23591762781143188, -0.14213387668132782, -0.19080141186714172, 0.35681143403053284, -0.32631760835647583, 0.13386406004428864, 0.054449792951345444, 0.0091329570859670639, -0.10878841578960419, 0.0058872904628515244, 0.034403730183839798, 0.1788632720708847, 0.18361562490463257, 0.066863372921943665, -0.14184124767780304, 0.018170803785324097, 0.26694715023040771, -0.29905274510383606, -0.15504135191440582, 0.014453325420618057, 0.068157337605953217, -0.12474313378334045, 0.13613522052764893, -0.052563302218914032, -0.16471871733665466, 0.028919737786054611, 0.15473538637161255, 0.041792288422584534, -0.16808851063251495, 0.12090093642473221, 0.045974817126989365, -0.13510823249816895, 0.088723942637443542, 0.21653379499912262, 0.037257388234138489, 0.11409421265125275, -0.19523878395557404, -0.084742806851863861, 0.077382437884807587, -0.088523626327514648, 0.12417325377464294, 0.095492064952850342, 0.0096135437488555908, 0.19077339768409729, -0.34297242760658264, 0.00085338938515633345, -0.24306903779506683, -0.07970292866230011, -0.1919562816619873, 0.007350284606218338, -0.20915792882442474, -0.29853898286819458, 0.029566511511802673, 0.059775900095701218, 0.094183802604675293, -0.15945097804069519, -0.31254169344902039, 0.32973852753639221, 0.0013398606097325683, -0.15093415975570679, -0.23672428727149963, -0.035433623939752579, 0.041658256202936172, -0.099987827241420746, 0.12315923720598221, -0.038373004645109177, -0.17675559222698212, -0.17964625358581543, -0.12588778138160706, 0.32536500692367554, 0.16153514385223389, 0.10667368024587631, -0.076524704694747925, 0.093368545174598694, 0.076096400618553162, 0.01014350913465023, 0.08472684770822525, 0.10854045301675797, -0.045952167361974716, 0.068067073822021484, 0.14398075640201569, 
  0.31392458081245422, 0.16539014875888824, 0.22058194875717163, 0.091825015842914581, 0.058368399739265442, -0.077633120119571686, -0.030070940032601357, 0.011704808101058006, 0.12573179602622986, 0.0059343613684177399, 0.1951114684343338, -0.23823918402194977, -0.12320873886346817, 0.43549376726150513, -0.27189862728118896, 0.071050770580768585, -0.087247945368289948, 0.10626563429832458, 0.0070921201258897781, -0.25274500250816345, 0.054454255849123001, 0.085579767823219299, -0.18876837193965912, 0.032819353044033051, -0.26788714528083801, -0.19437193870544434, 0.2113243043422699, 0.25887396931648254, -0.059744589030742645, 0.025798987597227097, 0.2692578136920929, -0.15151806175708771, -0.13120627403259277, 0.065849915146827698, -0.07671278715133667, -0.17000904679298401, -0.19653105735778809, -0.0073331566527485847, 0.097276151180267334, -0.16769160330295563, -0.4619109034538269, 0.098035797476768494, -0.11505728214979172, 0.17379312217235565, -0.018757116049528122, 0.08241630345582962, -0.077941015362739563, -0.1748892217874527, -0.20297850668430328, -0.15403750538825989, -0.069788195192813873, 0.00058410532074049115, 0.025519881397485733, 0.19990003108978271, 0.05109063908457756, -0.064226105809211731, 0.20840439200401306, 0.043687473982572556, 0.24572567641735077, -0.018994536250829697, 0.1146271824836731, 0.16325737535953522, -0.018417699262499809, 0.25413087010383606, 0.1452619880437851, 0.20765063166618347, 0.23730415105819702, 0.16844107210636139, 0.034349128603935242, 0.16456499695777893, 0.0042596124112606049, -0.14536884427070618, 0.10096742957830429, -0.1294616162776947, 0.066843405365943909, -0.00014907363220117986, -0.182867631316185, -0.026299990713596344, 0.13812720775604248, 0.43066376447677612, 0.43402966856956482, 0.092718422412872314, -0.24597665667533875, 0.037137135863304138, 0.057409528642892838, -0.25188642740249634, 0.19183482229709625, 0.040058813989162445, -0.15229164063930511, 0.04875839501619339, -0.098228707909584045, 0.32307508587837219, -0.049101892858743668, 0.030575627461075783, 0.055703222751617432, -0.040603365749120712, 0.035607609897851944, 0.14981478452682495, 0.099635995924472809, 0.066034570336341858, -0.32576298713684082, 0.073135718703269958, -0.16742175817489624, 0.095890447497367859, 0.040181156247854233, 0.11382072418928146, 0.015401172451674938, -0.10050448775291443, -0.068832047283649445, -0.010874691419303417, 0.013916139490902424, 0.058135304600000381, 0.16356809437274933, 0.063750587403774261, -0.23263721168041229, 0.053938955068588257, 0.14700523018836975, -0.17443357408046722, -0.066083513200283051, 0.0015744564589112997, -0.034741725772619247, -0.097725532948970795, 0.027659725397825241, -0.13973399996757507, -0.13173496723175049, -0.22400975227355957, -0.17154586315155029, 0.096887819468975067, 0.11889434605836868, -0.2158912867307663, -0.11426727473735809, 0.39525729417800903, 0.03181149810552597, -0.017027515918016434, -0.0413188636302948, 0.11992365121841431, 0.16908250749111176, 0.11445571482181549, -0.11330226063728333, 0.16323189437389374, -0.022697186097502708, 0.056381858885288239, -0.085525929927825928, -0.068082310259342194, 0.27598327398300171, 0.12720313668251038, 0.16380997002124786, -0.03400009498000145, 0.15716129541397095, 0.16141286492347717, -0.11934132128953934, -0.16369487345218658, 0.13322554528713226, 0.11478173732757568, 0.13838155567646027, -0.075728662312030792, 
  0.026617091149091721, 0.5273711085319519, -0.12487728148698807, -0.21226249635219574, -0.20623761415481567, 0.22711332142353058, 0.11976025253534317, 0.12827329337596893, 0.14347612857818604, 0.14766336977481842, 0.088540643453598022, 0.15566562116146088, -0.045057598501443863, -0.011847302317619324, 0.24392527341842651, 0.12305410951375961, -0.016832988709211349, 0.030591204762458801, 0.13359048962593079, 0.21835854649543762, -0.10248095542192459, 0.21939732134342194, -0.088748648762702942, 0.1664184033870697, 0.10262329131364822, 0.05712306872010231, -0.094178169965744019, -0.55057543516159058, 0.19975763559341431, -0.14208096265792847, 0.011421526782214642, 0.11705021560192108, 0.044460132718086243, 0.20109309256076813, 0.076939396560192108, 0.1340329647064209, 0.087584741413593292, -0.078509628772735596, 0.12772358953952789, 0.18403038382530212, 0.28461629152297974, 0.38710281252861023, 0.012666817754507065, -0.16983795166015625, 0.10595482587814331, -0.13002891838550568, -0.17946712672710419, -0.056608617305755615, -0.14394122362136841, 0.11963729560375214, 0.068139456212520599, -0.024639619514346123, 0.11887306720018387, 0.11934491991996765, 0.25681757926940918, -0.1543075293302536, 0.1004909873008728, 0.050122436136007309, -0.14786536991596222, 0.13392680883407593, -0.014501259662210941, -0.1293170154094696, 0.030031107366085052, -0.093391396105289459, 0.0044880066998302937, 0.059126757085323334, -0.31594866514205933, 0.12910228967666626, -0.036464095115661621, 0.055981535464525223, -0.16927684843540192, 0.16298602521419525, 0.14768499135971069, 0.17258240282535553, 0.081921368837356567, 0.16493052244186401, -0.068151339888572693, 0.052649553865194321, 0.21425099670886993, 0.45827195048332214, -0.083698734641075134, -0.12501326203346252, 0.21373188495635986, 0.3349250853061676, 0.2120562344789505, 0.2658698558807373, 0.15547607839107513, 0.26194292306900024, 0.22132875025272369, 0.30516183376312256, 0.1028851717710495, 0.077317863702774048, 0.23257432878017426, 0.18640841543674469, 0.081942625343799591, -0.036753330379724503, -0.12276659905910492, 0.11993687599897385, 0.15437856316566467, 0.11887946724891663, 0.2099909782409668, 0.20923283696174622, 0.21434251964092255, -0.055588271468877792, 0.14702717959880829, -0.61788207292556763, 0.18210949003696442, 0.022398026660084724, 0.11554202437400818, 0.1318681538105011, 0.19762545824050903, -0.085582159459590912, -0.076054282486438751, 0.081968411803245544, 0.18212410807609558, -0.085440516471862793, -0.038216531276702881, -0.10356889665126801, 0.12546932697296143, 0.24978278577327728, -0.071032799780368805, 0.24718034267425537, -0.042589951306581497, -0.07605849951505661, 0.033929038792848587, -0.054436191916465759, -0.10683269053697586, -0.10239601880311966, -0.0480961874127388, -0.13693256676197052, -0.01836937852203846, -0.22735187411308289, 0.19053308665752411, 0.22350682318210602, 0.18834739923477173, -0.099836908280849457, -0.12844379246234894, -0.068252325057983398, 0.016854699701070786, 0.01440739817917347, -0.11506630480289459, 0.033618554472923279, -0.082140520215034485, 0.0065001347102224827, -0.23655390739440918, 0.14430803060531616, 0.20884476602077484, 0.29011303186416626, -0.029328735545277596, -0.17109061777591705, 0.065865136682987213, -0.08761914074420929, -0.076037503778934479, 0.14681778848171234, 0.099729694426059723, 0.061901714652776718, 
  -0.14846694469451904, -0.47162404656410217, -0.19053445756435394, 0.0072758253663778305, 0.20718207955360413, -0.23421952128410339, -0.23471865057945251, -0.19470736384391785, -0.06502077728509903, -0.21159590780735016, -0.28143158555030823, -0.10475489497184753, -0.074122816324234009, -0.039400476962327957, -0.22490248084068298, 0.096489593386650085, -0.1494537889957428, -0.082704626023769379, 0.026866771280765533, -0.070493705570697784, -0.17300797998905182, -0.11062122881412506, 0.055173512548208237, -0.081198602914810181, 0.063233658671379089, -0.063064359128475189, -0.24852626025676727, -0.026171393692493439, -0.0099734850227832794, 0.11101017892360687, 0.040509127080440521, -0.11429732292890549, 0.038559041917324066, -0.17731675505638123, -0.13905720412731171, -0.15491999685764313, -0.022964555770158768, -0.21182172000408173, -0.15710195899009705, -0.028449507430195808, 0.28317666053771973, -0.2923540472984314, 0.014135295525193214, 0.11238912492990494, 0.012723240070044994, -0.073052778840065002, 0.18452584743499756, -0.074922382831573486, 0.035866141319274902, 0.032130643725395203, 0.067814350128173828, 0.085758939385414124, 0.0037123153451830149, 0.014404347166419029, -0.16446046531200409, -0.18711164593696594, -0.04094516858458519, -0.074907198548316956, 0.080913878977298737, -0.16907934844493866, -0.16175714135169983, 0.11170350015163422, -0.15271386504173279, -0.038070790469646454, -0.17717251181602478, 0.092796452343463898, 0.2100534588098526, -0.2154412567615509, -0.017305823042988777, 0.16018334031105042, -0.1254822164773941, -0.021850474178791046, -0.037789322435855865, 0.18147878348827362, 0.20695576071739197, 0.12385335564613342, -0.0087796775624155998, 0.077771633863449097, -0.27985477447509766, -0.36017462611198425, -0.15185505151748657, 0.15465694665908813, -0.088701888918876648, -0.24389289319515228, -0.052221301943063736, 0.1732138991355896, -0.17812211811542511, -0.2788223922252655, 0.030148761346936226, -0.16758988797664642, -0.069581456482410431, 0.054283030331134796, 0.049413323402404785, 0.012357925064861774, -0.042257662862539291, 0.1097213551402092, -0.0053041577339172363, -0.15917505323886871, 0.094276867806911469, -0.044125277549028397, 0.049694966524839401, -0.0047099585644900799, -0.067901626229286194, -0.04646165668964386, -0.044560428708791733, 0.2164313942193985, 0.16757644712924957, 0.16896004974842072, 0.064878441393375397, -0.35925808548927307, -0.17373378574848175, -0.10275601595640182, -0.0021091466769576073, -0.27987882494926453, -0.24594460427761078, 0.011785387992858887, -0.14193309843540192, 0.1259392648935318, 0.094994805753231049, -0.52254354953765869, 0.042621474713087082, -0.052583787590265274, -0.14531511068344116, 0.005144068505614996, 0.23024304211139679, 0.15444688498973846, 0.14988242089748383, -0.097970291972160339, 0.15540845692157745, 0.20429059863090515, 0.0080098062753677368, 0.12923116981983185, -0.14530138671398163, 0.056858297437429428, -0.034413725137710571, 0.0022216897923499346, 0.14527736604213715, -0.13394108414649963, 0.15382878482341766, -0.15076111257076263, 0.1435663104057312, -0.063829444348812103, 0.096232466399669647, -0.064306274056434631, -0.048521779477596283, -0.064252607524394989, 0.17600362002849579, 0.17846938967704773, -0.0057601244188845158, 0.022192511707544327, -0.03097548708319664, -0.0075522731058299541, 0.11859165877103806, 0.066844731569290161, -0.029911298304796219, -0.06029893085360527, 
  -0.13124705851078033, 0.19785840809345245, 0.12244762480258942, 0.097196914255619049, 0.084060020744800568, -0.011706127785146236, -0.024397438392043114, 0.16519954800605774, 0.10171413421630859, -0.01151580922305584, -0.029301460832357407, 0.19073794782161713, -0.028771795332431793, 0.079101845622062683, 0.14871791005134583, -0.12526269257068634, -0.14351943135261536, 0.035132218152284622, 0.17448176443576813, -0.096813023090362549, 0.11504359543323517, -0.071004077792167664, -0.1181708350777626, 0.18790189921855927, -0.081383585929870605, -0.13451609015464783, -0.06402868777513504, 0.019080992788076401, -0.072844043374061584, -0.11612419039011002, -0.026078348979353905, -0.1027422621846199, 0.062065385282039642, 0.072745762765407562, 0.066304296255111694, 0.20663547515869141, 0.22031636536121368, -0.072289101779460907, 0.17481464147567749, -0.18749305605888367, -0.20887970924377441, 0.16793763637542725, 0.16038042306900024, -0.087641559541225433, 0.031216522678732872, -0.15094399452209473, -0.0093025779351592064, 0.14216935634613037, -0.1657111793756485, 0.05402025580406189, -0.11248143762350082, -0.14302109181880951, 0.15910005569458008, -0.25140175223350525, 0.19369062781333923, -0.1543940007686615, 0.11857059597969055, -0.16856811940670013, -0.044777374714612961, -0.091204680502414703, 0.053506359457969666, -0.14462423324584961, 0.087968289852142334, 0.17152144014835358, -0.036469049751758575, 0.068540453910827637, -0.30402845144271851, 1.5753761545056477e-05, 0.035561669617891312, -0.081620864570140839, 0.12308993935585022, -0.082228466868400574, 0.095926463603973389, 0.15172095596790314, 0.063780397176742554, 0.02945445291697979, -0.1697099506855011, -0.15225662291049957, 0.048759520053863525, 0.19656094908714294, -0.1639435738325119, -0.12256476283073425, 0.018732504919171333, 0.074542254209518433, 0.047787491232156754, 0.11621451377868652, -0.010923197492957115, 0.10962505638599396, 0.071217194199562073, 0.12224651128053665, 0.031905829906463623, 0.12886142730712891, 0.077717199921607971, -0.19277547299861908, 0.12609069049358368, -0.058900371193885803, 0.05681682750582695, -0.017390485852956772, 0.20538513362407684, -0.17320187389850616, 0.10534584522247314, 0.049821462482213974, 0.033160444349050522, -0.1045810878276825, -0.053003411740064621, -0.35248696804046631, -0.16383333504199982, 0.17994146049022675, -0.0087087163701653481, 0.0041139423847198486, -0.029016207903623581, 0.0056448797695338726, 0.22177056968212128, 0.051987838000059128, -0.090520851314067841, 0.069437675178050995, 0.16891705989837646, 0.1580842137336731, -0.11691959202289581, 0.088667966425418854, -0.13303360342979431, 0.091473907232284546, 0.040128767490386963, 0.14724817872047424, -0.017359351739287376, 0.032890975475311279, 0.034917969256639481, 0.14549499750137329, 0.18436869978904724, 0.13930952548980713, 0.093122616410255432, -0.16371029615402222, 0.011433891952037811, 0.12870432436466217, -0.044050812721252441, -0.048791401088237762, 0.15143103897571564, 0.11006850749254227, 0.034150335937738419, -0.054672196507453918, -0.18434679508209229, -0.16625319421291351, -0.17154957354068756, 0.10544533282518387, -0.061863280832767487, -0.02782406285405159, 0.057059086859226227, 0.085673421621322632, 0.14343808591365814, -0.031507387757301331, 0.050392601639032364, 0.12447115778923035, -0.19123519957065582, -0.13556110858917236, 0.061862614005804062, -0.055881701409816742, 
  0.074711844325065613, -0.41530135273933411, 0.1080598384141922, -0.1317068338394165, 0.102507583796978, 0.12146542221307755, -0.023681472986936569, -0.036653611809015274, 0.051187906414270401, -0.093769103288650513, -0.12423958629369736, -0.10242275893688202, -0.11435064673423767, -0.14644502103328705, 0.013633365742862225, -0.090745911002159119, 0.081006512045860291, -0.051203075796365738, -0.10223054140806198, 0.063511259853839874, -0.13721604645252228, 0.12998178601264954, -0.15115991234779358, 0.11753704398870468, -0.13203802704811096, -0.18721404671669006, 0.082507722079753876, -0.075678236782550812, -0.23780916631221771, -0.054856270551681519, 0.14810872077941895, -0.047746859490871429, -0.096006765961647034, -0.18095032870769501, 0.18312174081802368, 0.12123183906078339, 0.04799390584230423, -0.14959439635276794, -0.14579756557941437, -0.035791534930467606, -0.1398441344499588, 0.11509349197149277, -0.032097071409225464, 0.17304341495037079, 0.061151161789894104, -0.014219492673873901, 0.23165427148342133, 0.035314787179231644, -0.10412799566984177, -0.18865677714347839, 0.047321300953626633, -0.18127265572547913, 0.096545249223709106, -0.027790360152721405, -0.23783327639102936, -0.053357969969511032, -0.043934151530265808, -0.030409134924411774, 0.014836312271654606, 0.21133656799793243, 0.00060444662813097239, -0.016089513897895813, -0.066138610243797302, 0.22358086705207825, 0.1447870135307312, -0.13314986228942871, -0.17118686437606812, -0.16168689727783203, 0.093399934470653534, 0.25233915448188782, 0.14348544180393219, 0.14523899555206299, 0.13139484822750092, -0.051299251616001129, -0.19883573055267334, 0.080411605536937714, 0.12838894128799438, 0.055753957480192184, 0.15690039098262787, -0.23646646738052368, 0.046194199472665787, 0.10163675248622894, 0.00059509486891329288, 0.056478973478078842, 0.053092163056135178, -0.048611942678689957, 0.26678949594497681, 0.097515374422073364, 0.059843402355909348, -0.12629541754722595, -0.18137910962104797, 0.1018412858247757, 0.064253918826580048, 0.037527702748775482, -0.033956743776798248, -0.24006204307079315, -0.023160124197602272, 0.073123864829540253, 0.20205157995223999, -0.17294478416442871, -0.29664123058319092, 0.11043703556060791, -0.00081913865869864821, -0.049192443490028381, -0.035977032035589218, -0.21739479899406433, -0.064118340611457825, -0.10878019034862518, -0.142685666680336, 0.17425787448883057, 0.0078855473548173904, 0.050291378051042557, -0.14546467363834381, -0.08668120950460434, -0.11591234803199768, -0.16814042627811432, 0.080816350877285004, 0.1020544022321701, -0.028320197016000748, -0.044111881405115128, 0.20998622477054596, -0.12842300534248352, 0.037867609411478043, 0.091852009296417236, 0.098804295063018799, 0.15774261951446533, -0.10513653606176376, -0.054949954152107239, 0.085084788501262665, 0.049117106944322586, -0.14208948612213135, 0.050557028502225876, -0.31979000568389893, 0.051542378962039948, -0.052801448851823807, -0.00079944671597331762, 0.090353675186634064, 0.22264754772186279, 0.0059390491805970669, 0.10203097760677338, 0.17661643028259277, 0.021781884133815765, 0.060363512486219406, -0.11033834517002106, -0.078209944069385529, -0.0091451704502105713, 0.11324763298034668, 0.099595166742801666, 0.021966543048620224, 0.048594899475574493, 0.020138192921876907, 0.11038924008607864, 0.19367814064025879, 0.10194829106330872, -0.0079407133162021637, -0.10778728127479553, 
  -0.0080952411517500877, 0.13535933196544647, 0.012183601967990398, -0.092447675764560699, -0.033901829272508621, -0.057729750871658325, 0.057215679436922073, -0.021717976778745651, 0.13449953496456146, 0.12705132365226746, -0.14574810862541199, 0.14771273732185364, 0.12886124849319458, -0.0039748656563460827, -0.005493194330483675, -0.077743873000144958, -0.0076408777385950089, -0.15618015825748444, -0.095092475414276123, 0.052031509578227997, -0.066801846027374268, -0.16567292809486389, 0.14653319120407104, -0.1414940357208252, -0.009676394984126091, 0.0073774694465100765, -0.12061040848493576, -0.074690572917461395, 0.067303113639354706, 0.14272972941398621, -0.13054947555065155, 0.029546830803155899, 0.15755510330200195, -0.11190811544656754, 0.018383180722594261, 0.066108949482440948, -0.16496546566486359, 0.042227316647768021, 0.01374349556863308, -0.026013663038611412, -0.11767011135816574, -0.12455686926841736, 0.045695260167121887, 0.099993415176868439, 0.0036655920557677746, -0.14573459327220917, -0.16872058808803558, 0.0516999252140522, -0.015058201737701893, 0.0091775031760334969, 0.049432151019573212, 0.086905807256698608, -0.1575361043214798, 0.060038290917873383, 0.087487712502479553, -0.09647814929485321, 0.094551309943199158, -0.15550385415554047, -0.12574242055416107, 0.15046446025371552, -0.13949723541736603, 0.12527061998844147, -0.13194297254085541, 0.067297071218490601, -0.13571237027645111, -0.023018395528197289, -0.032086808234453201, -0.12182863801717758, -0.13512477278709412, -0.11128456890583038, -0.17800250649452209, 0.12399406731128693, -0.051408488303422928, -0.023075293749570847, -0.037213407456874847, 0.06441555917263031, -0.15078894793987274, -0.17744918167591095, -0.1623571515083313, -0.083958998322486877, 0.13857465982437134, -0.015472817234694958, -0.0026970729231834412, -0.1533404141664505, -0.034014511853456497, 0.068668313324451447, 0.16399677097797394, -0.016675122082233429, 0.055614877492189407, 0.0044472729787230492, -0.16846661269664764, 0.027031376957893372, -0.12158317863941193, -0.042325254529714584, 0.056409832090139389, -0.14878642559051514, -0.11920306086540222, -0.12692242860794067, 0.1857854425907135, -0.10664821416139603, -0.054563332349061966, 0.1422065794467926, 0.12726715207099915, -0.13827769458293915, -0.034682024270296097, 0.11748410761356354, -0.17090226709842682, -0.13100071251392365, -0.015759797766804695, 0.11101117730140686, 0.1858675628900528, 0.13992474973201752, -0.15230722725391388, -0.11230593174695969, 0.083803623914718628, 0.026223650202155113, -0.014122865162789822, -0.10589773207902908, -0.085185125470161438, -0.010786411352455616, 0.17921175062656403, 0.023178661242127419, 0.08131958544254303, -0.089174561202526093, 0.055063545703887939, 0.12208281457424164, -0.16181409358978271, 0.002976197749376297, -0.092185035347938538, 0.0038877457845956087, -0.13312317430973053, 0.0055713215842843056, 0.14918717741966248, 0.10027403384447098, 0.024325888603925705, 0.17718984186649323, 0.083147883415222168, 0.14150388538837433, -0.094988569617271423, -0.076357923448085785, 0.073284246027469635, -0.11568136513233185, 0.066655948758125305, 0.045936454087495804, -0.00070193898864090443, 0.14465080201625824, -0.13171796500682831, 0.13899354636669159, -0.041972886770963669, 0.071817547082901001, -0.17731323838233948, 0.095588624477386475, -0.037068113684654236, -0.065102338790893555, 0.012902290560305119, -0.16565342247486115, 
};
const TfArray<2, int> tensor_dimension4 = { 2, { 20,156 } };
const MODEL_SECTION(EI_MODEL_SECTION) ALIGN(16) float tensor_data5[10*20] = { 
  0.14729475975036621, -0.29567396640777588, -0.28468096256256104, 0.045775815844535828, 0.34678691625595093, -0.0072789923287928104, 0.41302722692489624, -0.43155014514923096, -0.022048354148864746, -0.30866548418998718, 0.016480930149555206, 0.075670316815376282, 0.23764465749263763, 0.40345099568367004, 0.1773194819688797, -0.19134669005870819, 0.01077834889292717, -0.098261408507823944, -0.30445566773414612, 0.091529563069343567, 
  -0.20292529463768005, -0.43652644753456116, 0.23196285963058472, 0.26233062148094177, 0.22855617105960846, -0.26933935284614563, -0.29930600523948669, -0.39520218968391418, -0.35554879903793335, 0.1707179993391037, -0.24050480127334595, -0.2222503125667572, 0.23972122371196747, 0.68193215131759644, 0.15693879127502441, 0.30134576559066772, -0.21525686979293823, 0.11444889008998871, -0.17432524263858795, -0.11774033308029175, 
  -0.17326800525188446, -0.36983108520507812, 0.060338340699672699, 0.35847377777099609, 0.35979589819908142, -0.19515731930732727, -0.015354590490460396, 0.072118908166885376, -0.15676471590995789, 0.059234488755464554, -0.022563068196177483, 0.14042162895202637, -0.093566253781318665, -0.90399259328842163, -0.25491371750831604, -0.2605728805065155, 0.40983438491821289, -0.342460036277771, -0.34494325518608093, -0.30915829539299011, 
  0.24062947928905487, 0.051235824823379517, 0.39349201321601868, 0.016653291881084442, -0.3847789466381073, 0.36568129062652588, -0.38413769006729126, -0.12067735940217972, -0.10726484656333923, 0.45795997977256775, 0.42858776450157166, 0.2137947678565979, -0.26869103312492371, -0.21217067539691925, 0.44109666347503662, -0.28576427698135376, -0.045976847410202026, -0.20599450170993805, 0.45978504419326782, 0.32419508695602417, 
  -0.14094214141368866, 0.22864800691604614, -0.37068206071853638, -0.14844727516174316, -0.64156061410903931, 0.35419732332229614, 0.012121234089136124, 0.1934192031621933, -0.35277539491653442, 0.22730632126331329, 0.61136192083358765, 0.56485205888748169, -0.057524293661117554, 0.73511731624603271, 0.20355257391929626, -0.28686374425888062, -0.16417916119098663, 0.36725068092346191, 0.44144335389137268, 0.22064423561096191, 
  -0.33576247096061707, 0.26865863800048828, -0.2996247410774231, 0.19467127323150635, -0.12651751935482025, -0.50035703182220459, -0.068469613790512085, 0.25322160124778748, -0.44512087106704712, -0.17979496717453003, 0.26515179872512817, 0.20795926451683044, -0.20157495141029358, 0.23980724811553955, -0.20683415234088898, -0.26736918091773987, -0.17777363955974579, 0.20704078674316406, -0.28555589914321899, 0.015761494636535645, 
  0.33587285876274109, 0.18086844682693481, -0.23962989449501038, -0.45618093013763428, 0.45305812358856201, 0.10917774587869644, -0.057568583637475967, -0.27810749411582947, -0.10124102234840393, 0.077528588473796844, 0.24380804598331451, 0.25293323397636414, -0.27392521500587463, -0.45289021730422974, -0.036903690546751022, 0.090081535279750824, 0.23254343867301941, -0.08192802220582962, -0.093787021934986115, -0.13559626042842865, 
  -0.069769643247127533, 0.34791058301925659, 0.16717620193958282, 0.23219397664070129, -0.030485047027468681, 0.38416734337806702, 0.48078480362892151, -0.52140456438064575, 0.43627440929412842, -0.54230594635009766, -0.19393953680992126, 0.44476205110549927, 0.24509145319461823, -0.031198984012007713, -0.76005721092224121, 0.25265324115753174, 0.32002651691436768, -0.013998052105307579, 0.094770386815071106, 0.31898275017738342, 
  0.23219220340251923, 0.15565967559814453, 0.19685783982276917, -0.014513556845486164, 0.34860825538635254, 0.10442506521940231, -0.48840832710266113, -0.15604445338249207, -0.11346331238746643, -0.069713860750198364, 0.35332560539245605, 0.085411928594112396, -0.031466804444789886, -0.40842887759208679, -0.33682724833488464, 0.62593358755111694, -0.40125393867492676, 0.27209070324897766, -0.2365587055683136, -0.12500813603401184, 
  0.15725195407867432, -0.27388951182365417, -0.020044311881065369, -0.010452811606228352, 0.51421469449996948, 0.37301203608512878, -0.055159300565719604, 0.048746254295110703, 0.29590034484863281, -0.39195987582206726, -0.43286660313606262, -0.12960974872112274, -0.28975009918212891, -0.31775441765785217, 0.12471131235361099, -0.21322494745254517, -0.050361383706331253, 0.38635870814323425, -0.13086977601051331, 0.29270997643470764, 
};
const TfArray<2, int> tensor_dimension5 = { 2, { 10,20 } };
const MODEL_SECTION(EI_MODEL_SECTION) ALIGN(16) float tensor_data6[5*10] = { 
  0.3518373966217041, -0.12188148498535156, -1.0573478937149048, -0.034002140164375305, -0.48333093523979187, 0.022726284340023994, 0.27410057187080383, -0.76737862825393677, 0.49534192681312561, 0.051218248903751373, 
  0.32369306683540344, 0.51796799898147583, 0.074813239276409149, 0.029115684330463409, -0.68733841180801392, 0.52258503437042236, -0.020310575142502785, 0.45667579770088196, 0.49224269390106201, 0.19453664124011993, 
  -0.52612358331680298, -0.11119156330823898, 0.025058172643184662, -0.5681077241897583, -0.3623652458190918, 0.60919934511184692, 0.5814363956451416, 0.01536261010915041, 0.28578805923461914, 0.31984975934028625, 
  0.08491990715265274, 0.70222502946853638, -1.0209834575653076, 0.50004076957702637, -0.026911569759249687, -0.089623153209686279, -0.46028059720993042, -0.40686625242233276, -0.18681506812572479, -0.33420747518539429, 
  0.39847621321678162, -0.55728340148925781, -0.050144631415605545, 0.35176727175712585, -0.77495837211608887, 0.17274956405162811, 0.62002027034759521, -0.82254070043563843, -0.16520799696445465, 0.62989109754562378, 
};
const TfArray<2, int> tensor_dimension6 = { 2, { 5,10 } };
const TfArray<2, int> tensor_dimension7 = { 2, { 1,20 } };
const TfArray<2, int> tensor_dimension8 = { 2, { 1,10 } };
const TfArray<2, int> tensor_dimension9 = { 2, { 1,5 } };
const TfArray<2, int> tensor_dimension10 = { 2, { 1,5 } };
const TfLiteFullyConnectedParams opdata0 = { kTfLiteActRelu, kTfLiteFullyConnectedWeightsFormatDefault, false, false };
const TfArray<3, int> inputs0 = { 3, { 0,4,2 } };
const TfArray<1, int> outputs0 = { 1, { 7 } };
const TfLiteFullyConnectedParams opdata1 = { kTfLiteActRelu, kTfLiteFullyConnectedWeightsFormatDefault, false, false };
const TfArray<3, int> inputs1 = { 3, { 7,5,1 } };
const TfArray<1, int> outputs1 = { 1, { 8 } };
const TfLiteFullyConnectedParams opdata2 = { kTfLiteActNone, kTfLiteFullyConnectedWeightsFormatDefault, false, false };
const TfArray<3, int> inputs2 = { 3, { 8,6,3 } };
const TfArray<1, int> outputs2 = { 1, { 9 } };
const TfLiteSoftmaxParams opdata3 = { 1 };
const TfArray<1, int> inputs3 = { 1, { 9 } };
const TfArray<1, int> outputs3 = { 1, { 10 } };
};

TensorInfo_t tensorData[] = {
{ kTfLiteArenaRw, (int32_t*)(tensor_arena + 0), (TfLiteIntArray*)&g0::tensor_dimension0, 624, },
{ kTfLiteMmapRo, (int32_t*)g0::tensor_data1, (TfLiteIntArray*)&g0::tensor_dimension1, 40, },
{ kTfLiteMmapRo, (int32_t*)g0::tensor_data2, (TfLiteIntArray*)&g0::tensor_dimension2, 80, },
{ kTfLiteMmapRo, (int32_t*)g0::tensor_data3, (TfLiteIntArray*)&g0::tensor_dimension3, 20, },
{ kTfLiteMmapRo, (int32_t*)g0::tensor_data4, (TfLiteIntArray*)&g0::tensor_dimension4, 12480, },
{ kTfLiteMmapRo, (int32_t*)g0::tensor_data5, (TfLiteIntArray*)&g0::tensor_dimension5, 800, },
{ kTfLiteMmapRo, (int32_t*)g0::tensor_data6, (TfLiteIntArray*)&g0::tensor_dimension6, 200, },
{ kTfLiteArenaRw, (int32_t*)(tensor_arena + 624), (TfLiteIntArray*)&g0::tensor_dimension7, 80, },
{ kTfLiteArenaRw, (int32_t*)(tensor_arena + 0), (TfLiteIntArray*)&g0::tensor_dimension8, 40, },
{ kTfLiteArenaRw, (int32_t*)(tensor_arena + 48), (TfLiteIntArray*)&g0::tensor_dimension9, 20, },
{ kTfLiteArenaRw, (int32_t*)(tensor_arena + 0), (TfLiteIntArray*)&g0::tensor_dimension10, 20, },
};

#ifndef TF_LITE_STATIC_MEMORY
TfLiteNode tflNodes[4] = {
{ (TfLiteIntArray*)&g0::inputs0, (TfLiteIntArray*)&g0::outputs0, (TfLiteIntArray*)&g0::inputs0, nullptr, nullptr, const_cast<void*>(static_cast<const void*>(&g0::opdata0)), nullptr, 0, },
{ (TfLiteIntArray*)&g0::inputs1, (TfLiteIntArray*)&g0::outputs1, (TfLiteIntArray*)&g0::inputs1, nullptr, nullptr, const_cast<void*>(static_cast<const void*>(&g0::opdata1)), nullptr, 0, },
{ (TfLiteIntArray*)&g0::inputs2, (TfLiteIntArray*)&g0::outputs2, (TfLiteIntArray*)&g0::inputs2, nullptr, nullptr, const_cast<void*>(static_cast<const void*>(&g0::opdata2)), nullptr, 0, },
{ (TfLiteIntArray*)&g0::inputs3, (TfLiteIntArray*)&g0::outputs3, (TfLiteIntArray*)&g0::inputs3, nullptr, nullptr, const_cast<void*>(static_cast<const void*>(&g0::opdata3)), nullptr, 0, },
};
#else
TfLiteNode tflNodes[4] = {
{ (TfLiteIntArray*)&g0::inputs0, (TfLiteIntArray*)&g0::outputs0, (TfLiteIntArray*)&g0::inputs0, nullptr, const_cast<void*>(static_cast<const void*>(&g0::opdata0)), nullptr, 0, },
{ (TfLiteIntArray*)&g0::inputs1, (TfLiteIntArray*)&g0::outputs1, (TfLiteIntArray*)&g0::inputs1, nullptr, const_cast<void*>(static_cast<const void*>(&g0::opdata1)), nullptr, 0, },
{ (TfLiteIntArray*)&g0::inputs2, (TfLiteIntArray*)&g0::outputs2, (TfLiteIntArray*)&g0::inputs2, nullptr, const_cast<void*>(static_cast<const void*>(&g0::opdata2)), nullptr, 0, },
{ (TfLiteIntArray*)&g0::inputs3, (TfLiteIntArray*)&g0::outputs3, (TfLiteIntArray*)&g0::inputs3, nullptr, const_cast<void*>(static_cast<const void*>(&g0::opdata3)), nullptr, 0, },
};
#endif

used_operators_e used_ops[] =
{OP_FULLY_CONNECTED, OP_FULLY_CONNECTED, OP_FULLY_CONNECTED, OP_SOFTMAX, };


// Indices into tflTensors and tflNodes for subgraphs
const size_t tflTensors_subgraph_index[] = {0, 11, };
const size_t tflNodes_subgraph_index[] = {0, 4, };

// Input/output tensors
static const int in_tensor_indices[] = {
  0, 
};

static const int out_tensor_indices[] = {
  10, 
};


size_t current_subgraph_index = 0;

static void init_tflite_tensor(size_t i, TfLiteTensor *tensor) {
  tensor->type = kTfLiteFloat32;
  tensor->is_variable = false;

#if defined(EI_CLASSIFIER_ALLOCATION_HEAP)
  tensor->allocation_type = tensorData[i].allocation_type;
#else
  tensor->allocation_type = (tensor_arena <= tensorData[i].data && tensorData[i].data < tensor_arena + kTensorArenaSize) ? kTfLiteArenaRw : kTfLiteMmapRo;
#endif
  tensor->bytes = tensorData[i].bytes;
  tensor->dims = tensorData[i].dims;

#if defined(EI_CLASSIFIER_ALLOCATION_HEAP)
  if(tensor->allocation_type == kTfLiteArenaRw){
    uint8_t* start = (uint8_t*) ((uintptr_t)tensorData[i].data + (uintptr_t) tensor_arena);

    tensor->data.data =  start;
  }
  else {
      tensor->data.data = tensorData[i].data;
  }
#else
  tensor->data.data = tensorData[i].data;
#endif // EI_CLASSIFIER_ALLOCATION_HEAP
  tensor->quantization.type = kTfLiteNoQuantization;

}

static void init_tflite_eval_tensor(int i, TfLiteEvalTensor *tensor) {

  tensor->type = kTfLiteFloat32;

  tensor->dims = tensorData[i].dims;

#if defined(EI_CLASSIFIER_ALLOCATION_HEAP)
  auto allocation_type = tensorData[i].allocation_type;
  if(allocation_type == kTfLiteArenaRw) {
    uint8_t* start = (uint8_t*) ((uintptr_t)tensorData[i].data + (uintptr_t) tensor_arena);

    tensor->data.data =  start;
  }
  else {
    tensor->data.data = tensorData[i].data;
  }
#else
  tensor->data.data = tensorData[i].data;
#endif // EI_CLASSIFIER_ALLOCATION_HEAP
}

static void* overflow_buffers[EI_MAX_OVERFLOW_BUFFER_COUNT];
static size_t overflow_buffers_ix = 0;
static void * AllocatePersistentBufferImpl(struct TfLiteContext* ctx,
                                       size_t bytes) {
  void *ptr;
  uint32_t align_bytes = (bytes % 16) ? 16 - (bytes % 16) : 0;

  if (current_location - (bytes + align_bytes) < tensor_boundary) {
    if (overflow_buffers_ix > EI_MAX_OVERFLOW_BUFFER_COUNT - 1) {
      ei_printf("ERR: Failed to allocate persistent buffer of size %d, does not fit in tensor arena and reached EI_MAX_OVERFLOW_BUFFER_COUNT\n",
        (int)bytes);
      return NULL;
    }

    // OK, this will look super weird, but.... we have CMSIS-NN buffers which
    // we cannot calculate beforehand easily.
    ptr = ei_calloc(bytes, 1);
    if (ptr == NULL) {
      ei_printf("ERR: Failed to allocate persistent buffer of size %d\n", (int)bytes);
      return NULL;
    }
    overflow_buffers[overflow_buffers_ix++] = ptr;
    return ptr;
  }

  current_location -= bytes;

  // align to the left aligned boundary of 16 bytes
  current_location -= 15; // for alignment
  current_location += 16 - ((uintptr_t)(current_location) & 15);

  ptr = current_location;
  memset(ptr, 0, bytes);

  return ptr;
}

typedef struct {
  size_t bytes;
  void *ptr;
} scratch_buffer_t;

static scratch_buffer_t scratch_buffers[EI_MAX_SCRATCH_BUFFER_COUNT];
static size_t scratch_buffers_ix = 0;

static TfLiteStatus RequestScratchBufferInArenaImpl(struct TfLiteContext* ctx, size_t bytes,
                                                int* buffer_idx) {
  if (scratch_buffers_ix > EI_MAX_SCRATCH_BUFFER_COUNT - 1) {
    ei_printf("ERR: Failed to allocate scratch buffer of size %d, reached EI_MAX_SCRATCH_BUFFER_COUNT\n",
      (int)bytes);
    return kTfLiteError;
  }

  scratch_buffer_t b;
  b.bytes = bytes;

  b.ptr = AllocatePersistentBufferImpl(ctx, b.bytes);
  if (!b.ptr) {
    ei_printf("ERR: Failed to allocate scratch buffer of size %d\n",
      (int)bytes);
    return kTfLiteError;
  }

  scratch_buffers[scratch_buffers_ix] = b;
  *buffer_idx = scratch_buffers_ix;

  scratch_buffers_ix++;

  return kTfLiteOk;
}

static void* GetScratchBufferImpl(struct TfLiteContext* ctx, int buffer_idx) {
  if (buffer_idx > (int)scratch_buffers_ix) {
    return NULL;
  }
  return scratch_buffers[buffer_idx].ptr;
}

static const uint16_t TENSOR_IX_UNUSED = 0x7FFF;

static void ResetTensors() {
  for (size_t ix = 0; ix < MAX_TFL_TENSOR_COUNT; ix++) {
    tflTensors[ix].index = TENSOR_IX_UNUSED;
  }
  for (size_t ix = 0; ix < MAX_TFL_EVAL_COUNT; ix++) {
    tflEvalTensors[ix].index = TENSOR_IX_UNUSED;
  }
}

static TfLiteTensor* GetTensorImpl(const struct TfLiteContext* context,
                               int tensor_idx) {

  tensor_idx = tflTensors_subgraph_index[current_subgraph_index] + tensor_idx;

  for (size_t ix = 0; ix < MAX_TFL_TENSOR_COUNT; ix++) {
    // already used? OK!
    if (tflTensors[ix].index == tensor_idx) {
      return &tflTensors[ix].tensor;
    }
    // passed all the ones we've used, so end of the list?
    if (tflTensors[ix].index == TENSOR_IX_UNUSED) {
      // init the tensor
      init_tflite_tensor(tensor_idx, &tflTensors[ix].tensor);
      tflTensors[ix].index = tensor_idx;
      return &tflTensors[ix].tensor;
    }
  }

  ei_printf("ERR: GetTensor called beyond MAX_TFL_TENSOR_COUNT (%d)\n", MAX_TFL_TENSOR_COUNT);
  return nullptr;
}

static TfLiteEvalTensor* GetEvalTensorImpl(const struct TfLiteContext* context,
                                       int tensor_idx) {

  tensor_idx = tflTensors_subgraph_index[current_subgraph_index] + tensor_idx;

  for (size_t ix = 0; ix < MAX_TFL_EVAL_COUNT; ix++) {
    // already used? OK!
    if (tflEvalTensors[ix].index == tensor_idx) {
      return &tflEvalTensors[ix].tensor;
    }
    // passed all the ones we've used, so end of the list?
    if (tflEvalTensors[ix].index == TENSOR_IX_UNUSED) {
      // init the tensor
      init_tflite_eval_tensor(tensor_idx, &tflEvalTensors[ix].tensor);
      tflEvalTensors[ix].index = tensor_idx;
      return &tflEvalTensors[ix].tensor;
    }
  }

  ei_printf("ERR: GetTensor called beyond MAX_TFL_EVAL_COUNT (%d)\n", (int)MAX_TFL_EVAL_COUNT);
  return nullptr;
}

class EonMicroContext : public MicroContext {
 public:
 
  EonMicroContext(): MicroContext(nullptr, nullptr, nullptr) { }

  void* AllocatePersistentBuffer(size_t bytes) {
    return AllocatePersistentBufferImpl(nullptr, bytes);
  }

  TfLiteStatus RequestScratchBufferInArena(size_t bytes,
                                           int* buffer_index) {
  return RequestScratchBufferInArenaImpl(nullptr, bytes, buffer_index);
  }

  void* GetScratchBuffer(int buffer_index) {
    return GetScratchBufferImpl(nullptr, buffer_index);
  }
 
  TfLiteTensor* AllocateTempTfLiteTensor(int tensor_index) {
    return GetTensorImpl(nullptr, tensor_index);
  }

  void DeallocateTempTfLiteTensor(TfLiteTensor* tensor) {
    return;
  }

  bool IsAllTempTfLiteTensorDeallocated() {
    return true;
  }

  TfLiteEvalTensor* GetEvalTensor(int tensor_index) {
    return GetEvalTensorImpl(nullptr, tensor_index);
  }

};


} // namespace

TfLiteStatus tflite_learn_10_init( void*(*alloc_fnc)(size_t,size_t) ) {
#ifdef EI_CLASSIFIER_ALLOCATION_HEAP
  tensor_arena = (uint8_t*) alloc_fnc(16, kTensorArenaSize);
  if (!tensor_arena) {
    ei_printf("ERR: failed to allocate tensor arena\n");
    return kTfLiteError;
  }
#else
  memset(tensor_arena, 0, kTensorArenaSize);
#endif
  tensor_boundary = tensor_arena;
  current_location = tensor_arena + kTensorArenaSize;

  EonMicroContext micro_context_;
  
  // Set microcontext as the context ptr
  ctx.impl_ = static_cast<void*>(&micro_context_);
  // Setup tflitecontext functions
  ctx.AllocatePersistentBuffer = &AllocatePersistentBufferImpl;
  ctx.RequestScratchBufferInArena = &RequestScratchBufferInArenaImpl;
  ctx.GetScratchBuffer = &GetScratchBufferImpl;
  ctx.GetTensor = &GetTensorImpl;
  ctx.GetEvalTensor = &GetEvalTensorImpl;
  ctx.ReportError = &MicroContextReportOpError;

  ctx.tensors_size = 11;
  for (size_t i = 0; i < 11; ++i) {
    TfLiteTensor tensor;
    init_tflite_tensor(i, &tensor);
    if (tensor.allocation_type == kTfLiteArenaRw) {
      auto data_end_ptr = (uint8_t*)tensor.data.data + tensorData[i].bytes;
      if (data_end_ptr > tensor_boundary) {
        tensor_boundary = data_end_ptr;
      }
    }
  }

  if (tensor_boundary > current_location /* end of arena size */) {
    ei_printf("ERR: tensor arena is too small, does not fit model - even without scratch buffers\n");
    return kTfLiteError;
  }

  registrations[OP_FULLY_CONNECTED] = Register_FULLY_CONNECTED();
  registrations[OP_SOFTMAX] = Register_SOFTMAX();

  for (size_t g = 0; g < 1; ++g) {
    current_subgraph_index = g;
    for(size_t i = tflNodes_subgraph_index[g]; i < tflNodes_subgraph_index[g+1]; ++i) {
      if (registrations[used_ops[i]].init) {
        tflNodes[i].user_data = registrations[used_ops[i]].init(&ctx, (const char*)tflNodes[i].builtin_data, 0);
      }
    }
  }
  current_subgraph_index = 0;

  for(size_t g = 0; g < 1; ++g) {
    current_subgraph_index = g;
    for(size_t i = tflNodes_subgraph_index[g]; i < tflNodes_subgraph_index[g+1]; ++i) {
      if (registrations[used_ops[i]].prepare) {
        ResetTensors();
        TfLiteStatus status = registrations[used_ops[i]].prepare(&ctx, &tflNodes[i]);
        if (status != kTfLiteOk) {
          return status;
        }
      }
    }
  }
  current_subgraph_index = 0;

  return kTfLiteOk;
}

TfLiteStatus tflite_learn_10_input(int index, TfLiteTensor *tensor) {
  init_tflite_tensor(in_tensor_indices[index], tensor);
  return kTfLiteOk;
}

TfLiteStatus tflite_learn_10_output(int index, TfLiteTensor *tensor) {
  init_tflite_tensor(out_tensor_indices[index], tensor);
  return kTfLiteOk;
}

TfLiteStatus tflite_learn_10_invoke() {
  for (size_t i = 0; i < 4; ++i) {
    ResetTensors();

    TfLiteStatus status = registrations[used_ops[i]].invoke(&ctx, &tflNodes[i]);

#if EI_CLASSIFIER_PRINT_STATE
    ei_printf("layer %lu\n", i);
    ei_printf("    inputs:\n");
    for (size_t ix = 0; ix < tflNodes[i].inputs->size; ix++) {
      auto d = tensorData[tflNodes[i].inputs->data[ix]];

      size_t data_ptr = (size_t)d.data;

      if (d.allocation_type == kTfLiteArenaRw) {
        data_ptr = (size_t)tensor_arena + data_ptr;
      }

      if (d.type == TfLiteType::kTfLiteInt8) {
        int8_t* data = (int8_t*)data_ptr;
        ei_printf("        %lu (%zu bytes, ptr=%p, alloc_type=%d, type=%d): ", ix, d.bytes, data, (int)d.allocation_type, (int)d.type);
        for (size_t jx = 0; jx < d.bytes; jx++) {
          ei_printf("%d ", data[jx]);
        }
      }
      else {
        float* data = (float*)data_ptr;
        ei_printf("        %lu (%zu bytes, ptr=%p, alloc_type=%d, type=%d): ", ix, d.bytes, data, (int)d.allocation_type, (int)d.type);
        for (size_t jx = 0; jx < d.bytes / 4; jx++) {
          ei_printf("%f ", data[jx]);
        }
      }
      ei_printf("\n");
    }
    ei_printf("\n");

    ei_printf("    outputs:\n");
    for (size_t ix = 0; ix < tflNodes[i].outputs->size; ix++) {
      auto d = tensorData[tflNodes[i].outputs->data[ix]];

      size_t data_ptr = (size_t)d.data;

      if (d.allocation_type == kTfLiteArenaRw) {
        data_ptr = (size_t)tensor_arena + data_ptr;
      }

      if (d.type == TfLiteType::kTfLiteInt8) {
        int8_t* data = (int8_t*)data_ptr;
        ei_printf("        %lu (%zu bytes, ptr=%p, alloc_type=%d, type=%d): ", ix, d.bytes, data, (int)d.allocation_type, (int)d.type);
        for (size_t jx = 0; jx < d.bytes; jx++) {
          ei_printf("%d ", data[jx]);
        }
      }
      else {
        float* data = (float*)data_ptr;
        ei_printf("        %lu (%zu bytes, ptr=%p, alloc_type=%d, type=%d): ", ix, d.bytes, data, (int)d.allocation_type, (int)d.type);
        for (size_t jx = 0; jx < d.bytes / 4; jx++) {
          ei_printf("%f ", data[jx]);
        }
      }
      ei_printf("\n");
    }
    ei_printf("\n");
#endif // EI_CLASSIFIER_PRINT_STATE

    if (status != kTfLiteOk) {
      return status;
    }
  }
  return kTfLiteOk;
}

TfLiteStatus tflite_learn_10_reset( void (*free_fnc)(void* ptr) ) {
#ifdef EI_CLASSIFIER_ALLOCATION_HEAP
  free_fnc(tensor_arena);
#endif

  // scratch buffers are allocated within the arena, so just reset the counter so memory can be reused
  scratch_buffers_ix = 0;

  // overflow buffers are on the heap, so free them first
  for (size_t ix = 0; ix < overflow_buffers_ix; ix++) {
    ei_free(overflow_buffers[ix]);
  }
  overflow_buffers_ix = 0;
  return kTfLiteOk;
}
